=== Run information ===

Scheme:       weka.classifiers.trees.J48 -C 0.25 -M 2
Relation:     train
Instances:    26729
Attributes:   15
              HasName
              DayPeriod
              WeekDay
              Month
              IsHoliday
              Season
              AnimalType
              Sex
              Castrated
              DaysuponOutcome
              IsMix
              BreedGroup
              IsPopularBreed
              IsSingleColor
              OutcomeType
Test mode:    10-fold cross-validation

=== Classifier model (full training set) ===

J48 pruned tree
------------------

Castrated = Yes
|   DaysuponOutcome <= 240: Adoption (6122.0/1081.0)
|   DaysuponOutcome > 240
|   |   HasName = Yes
|   |   |   AnimalType = Dog
|   |   |   |   DaysuponOutcome <= 730
|   |   |   |   |   DayPeriod = Afternoon: Adoption (3595.0/1626.0)
|   |   |   |   |   DayPeriod = Morning
|   |   |   |   |   |   BreedGroup = Herding: Adoption (166.0/80.0)
|   |   |   |   |   |   BreedGroup = Group 4: Adoption (0.0)
|   |   |   |   |   |   BreedGroup = Pit Bull
|   |   |   |   |   |   |   Sex = Male
|   |   |   |   |   |   |   |   Month = February
|   |   |   |   |   |   |   |   |   WeekDay = Wed: Transfer (2.0)
|   |   |   |   |   |   |   |   |   WeekDay = Sun: Return_to_owner (3.0/2.0)
|   |   |   |   |   |   |   |   |   WeekDay = Sat: Adoption (0.0)
|   |   |   |   |   |   |   |   |   WeekDay = Fri: Adoption (0.0)
|   |   |   |   |   |   |   |   |   WeekDay = Thu: Adoption (0.0)
|   |   |   |   |   |   |   |   |   WeekDay = Tue: Adoption (2.0)
|   |   |   |   |   |   |   |   |   WeekDay = Mon: Adoption (0.0)
|   |   |   |   |   |   |   |   Month = October: Adoption (10.0/6.0)
|   |   |   |   |   |   |   |   Month = January: Return_to_owner (10.0/4.0)
|   |   |   |   |   |   |   |   Month = July: Transfer (7.0/3.0)
|   |   |   |   |   |   |   |   Month = November
|   |   |   |   |   |   |   |   |   IsHoliday = No: Euthanasia (4.0/2.0)
|   |   |   |   |   |   |   |   |   IsHoliday = Yes: Transfer (5.0/1.0)
|   |   |   |   |   |   |   |   Month = April: Transfer (6.0/3.0)
|   |   |   |   |   |   |   |   Month = March: Transfer (4.0/2.0)
|   |   |   |   |   |   |   |   Month = May
|   |   |   |   |   |   |   |   |   IsSingleColor = No: Adoption (3.0/1.0)
|   |   |   |   |   |   |   |   |   IsSingleColor = Yes: Return_to_owner (2.0/1.0)
|   |   |   |   |   |   |   |   Month = December
|   |   |   |   |   |   |   |   |   WeekDay = Wed: Adoption (1.0)
|   |   |   |   |   |   |   |   |   WeekDay = Sun: Return_to_owner (2.0/1.0)
|   |   |   |   |   |   |   |   |   WeekDay = Sat: Adoption (3.0/1.0)
|   |   |   |   |   |   |   |   |   WeekDay = Fri: Transfer (2.0)
|   |   |   |   |   |   |   |   |   WeekDay = Thu: Euthanasia (2.0/1.0)
|   |   |   |   |   |   |   |   |   WeekDay = Tue: Return_to_owner (1.0)
|   |   |   |   |   |   |   |   |   WeekDay = Mon: Transfer (4.0/2.0)
|   |   |   |   |   |   |   |   Month = June: Euthanasia (3.0/2.0)
|   |   |   |   |   |   |   |   Month = September: Transfer (6.0/1.0)
|   |   |   |   |   |   |   |   Month = August
|   |   |   |   |   |   |   |   |   DaysuponOutcome <= 365: Return_to_owner (4.0/1.0)
|   |   |   |   |   |   |   |   |   DaysuponOutcome > 365: Adoption (2.0)
|   |   |   |   |   |   |   Sex = Female: Adoption (77.0/45.0)
|   |   |   |   |   |   |   Sex = Unknown: Adoption (0.0)
|   |   |   |   |   |   BreedGroup = Non-Sporting
|   |   |   |   |   |   |   WeekDay = Wed: Adoption (8.0/3.0)
|   |   |   |   |   |   |   WeekDay = Sun: Transfer (5.0/2.0)
|   |   |   |   |   |   |   WeekDay = Sat: Adoption (11.0/6.0)
|   |   |   |   |   |   |   WeekDay = Fri: Return_to_owner (4.0/1.0)
|   |   |   |   |   |   |   WeekDay = Thu: Euthanasia (3.0/2.0)
|   |   |   |   |   |   |   WeekDay = Tue: Return_to_owner (4.0/2.0)
|   |   |   |   |   |   |   WeekDay = Mon: Transfer (5.0/2.0)
|   |   |   |   |   |   BreedGroup = Terrier
|   |   |   |   |   |   |   WeekDay = Wed
|   |   |   |   |   |   |   |   IsSingleColor = No: Return_to_owner (5.0/3.0)
|   |   |   |   |   |   |   |   IsSingleColor = Yes: Adoption (2.0)
|   |   |   |   |   |   |   WeekDay = Sun
|   |   |   |   |   |   |   |   IsSingleColor = No: Adoption (8.0/3.0)
|   |   |   |   |   |   |   |   IsSingleColor = Yes
|   |   |   |   |   |   |   |   |   Season = Winter: Return_to_owner (0.0)
|   |   |   |   |   |   |   |   |   Season = Fall
|   |   |   |   |   |   |   |   |   |   DaysuponOutcome <= 365: Transfer (3.0)
|   |   |   |   |   |   |   |   |   |   DaysuponOutcome > 365: Return_to_owner (4.0/1.0)
|   |   |   |   |   |   |   |   |   Season = Summer: Return_to_owner (1.0)
|   |   |   |   |   |   |   |   |   Season = Spring: Adoption (2.0)
|   |   |   |   |   |   |   WeekDay = Sat
|   |   |   |   |   |   |   |   IsSingleColor = No: Adoption (5.0/1.0)
|   |   |   |   |   |   |   |   IsSingleColor = Yes: Return_to_owner (4.0/1.0)
|   |   |   |   |   |   |   WeekDay = Fri: Return_to_owner (7.0/3.0)
|   |   |   |   |   |   |   WeekDay = Thu
|   |   |   |   |   |   |   |   DaysuponOutcome <= 365: Adoption (3.0/1.0)
|   |   |   |   |   |   |   |   DaysuponOutcome > 365: Return_to_owner (6.0/1.0)
|   |   |   |   |   |   |   WeekDay = Tue: Adoption (10.0/3.0)
|   |   |   |   |   |   |   WeekDay = Mon
|   |   |   |   |   |   |   |   Sex = Male: Return_to_owner (7.0/3.0)
|   |   |   |   |   |   |   |   Sex = Female: Adoption (6.0/3.0)
|   |   |   |   |   |   |   |   Sex = Unknown: Transfer (0.0)
|   |   |   |   |   |   BreedGroup = Toy
|   |   |   |   |   |   |   Month = February
|   |   |   |   |   |   |   |   IsPopularBreed = No: Transfer (8.0/3.0)
|   |   |   |   |   |   |   |   IsPopularBreed = Yes: Return_to_owner (3.0/1.0)
|   |   |   |   |   |   |   Month = October: Adoption (19.0/9.0)
|   |   |   |   |   |   |   Month = January: Adoption (16.0/8.0)
|   |   |   |   |   |   |   Month = July: Adoption (9.0/3.0)
|   |   |   |   |   |   |   Month = November
|   |   |   |   |   |   |   |   IsPopularBreed = No: Transfer (13.0/4.0)
|   |   |   |   |   |   |   |   IsPopularBreed = Yes: Return_to_owner (3.0)
|   |   |   |   |   |   |   Month = April
|   |   |   |   |   |   |   |   DaysuponOutcome <= 365: Adoption (4.0/1.0)
|   |   |   |   |   |   |   |   DaysuponOutcome > 365
|   |   |   |   |   |   |   |   |   IsSingleColor = No: Adoption (5.0/2.0)
|   |   |   |   |   |   |   |   |   IsSingleColor = Yes: Return_to_owner (4.0)
|   |   |   |   |   |   |   Month = March: Adoption (9.0/3.0)
|   |   |   |   |   |   |   Month = May: Adoption (15.0/8.0)
|   |   |   |   |   |   |   Month = December: Adoption (21.0/10.0)
|   |   |   |   |   |   |   Month = June: Transfer (16.0/7.0)
|   |   |   |   |   |   |   Month = September
|   |   |   |   |   |   |   |   WeekDay = Wed: Return_to_owner (2.0/1.0)
|   |   |   |   |   |   |   |   WeekDay = Sun: Adoption (3.0)
|   |   |   |   |   |   |   |   WeekDay = Sat: Adoption (0.0)
|   |   |   |   |   |   |   |   WeekDay = Fri: Return_to_owner (1.0)
|   |   |   |   |   |   |   |   WeekDay = Thu: Adoption (0.0)
|   |   |   |   |   |   |   |   WeekDay = Tue: Adoption (1.0)
|   |   |   |   |   |   |   |   WeekDay = Mon: Return_to_owner (1.0)
|   |   |   |   |   |   |   Month = August: Adoption (12.0/1.0)
|   |   |   |   |   |   BreedGroup = Working
|   |   |   |   |   |   |   DaysuponOutcome <= 365: Adoption (34.0/18.0)
|   |   |   |   |   |   |   DaysuponOutcome > 365: Return_to_owner (26.0/10.0)
|   |   |   |   |   |   BreedGroup = Group 2: Adoption (0.0)
|   |   |   |   |   |   BreedGroup = Unknown: Adoption (17.0/10.0)
|   |   |   |   |   |   BreedGroup = Hound
|   |   |   |   |   |   |   Month = February: Return_to_owner (12.0/4.0)
|   |   |   |   |   |   |   Month = October
|   |   |   |   |   |   |   |   DaysuponOutcome <= 365: Adoption (2.0)
|   |   |   |   |   |   |   |   DaysuponOutcome > 365: Return_to_owner (2.0/1.0)
|   |   |   |   |   |   |   Month = January
|   |   |   |   |   |   |   |   DaysuponOutcome <= 365: Adoption (2.0)
|   |   |   |   |   |   |   |   DaysuponOutcome > 365: Transfer (3.0)
|   |   |   |   |   |   |   Month = July: Adoption (11.0/4.0)
|   |   |   |   |   |   |   Month = November
|   |   |   |   |   |   |   |   WeekDay = Wed: Transfer (1.0)
|   |   |   |   |   |   |   |   WeekDay = Sun: Return_to_owner (2.0)
|   |   |   |   |   |   |   |   WeekDay = Sat: Euthanasia (1.0)
|   |   |   |   |   |   |   |   WeekDay = Fri: Transfer (3.0/1.0)
|   |   |   |   |   |   |   |   WeekDay = Thu: Transfer (2.0)
|   |   |   |   |   |   |   |   WeekDay = Tue: Transfer (0.0)
|   |   |   |   |   |   |   |   WeekDay = Mon: Return_to_owner (2.0)
|   |   |   |   |   |   |   Month = April: Return_to_owner (6.0/3.0)
|   |   |   |   |   |   |   Month = March: Transfer (3.0/1.0)
|   |   |   |   |   |   |   Month = May: Adoption (4.0/1.0)
|   |   |   |   |   |   |   Month = December: Adoption (11.0/5.0)
|   |   |   |   |   |   |   Month = June: Return_to_owner (2.0/1.0)
|   |   |   |   |   |   |   Month = September: Return_to_owner (3.0/2.0)
|   |   |   |   |   |   |   Month = August: Return_to_owner (4.0/1.0)
|   |   |   |   |   |   BreedGroup = Group 3: Adoption (0.0)
|   |   |   |   |   |   BreedGroup = Sporting: Adoption (121.0/66.0)
|   |   |   |   |   |   BreedGroup = Group 1: Adoption (0.0)
|   |   |   |   |   |   BreedGroup = Terrier&Toy: Adoption (6.0)
|   |   |   |   |   DayPeriod = Evening
|   |   |   |   |   |   Month = February: Transfer (27.0/9.0)
|   |   |   |   |   |   Month = October: Adoption (36.0/10.0)
|   |   |   |   |   |   Month = January
|   |   |   |   |   |   |   Sex = Male
|   |   |   |   |   |   |   |   BreedGroup = Herding: Return_to_owner (2.0/1.0)
|   |   |   |   |   |   |   |   BreedGroup = Group 4: Adoption (0.0)
|   |   |   |   |   |   |   |   BreedGroup = Pit Bull: Return_to_owner (1.0)
|   |   |   |   |   |   |   |   BreedGroup = Non-Sporting: Adoption (0.0)
|   |   |   |   |   |   |   |   BreedGroup = Terrier: Adoption (0.0)
|   |   |   |   |   |   |   |   BreedGroup = Toy
|   |   |   |   |   |   |   |   |   IsSingleColor = No: Adoption (4.0)
|   |   |   |   |   |   |   |   |   IsSingleColor = Yes: Return_to_owner (2.0/1.0)
|   |   |   |   |   |   |   |   BreedGroup = Working
|   |   |   |   |   |   |   |   |   IsPopularBreed = No: Adoption (2.0)
|   |   |   |   |   |   |   |   |   IsPopularBreed = Yes: Return_to_owner (2.0)
|   |   |   |   |   |   |   |   BreedGroup = Group 2: Adoption (0.0)
|   |   |   |   |   |   |   |   BreedGroup = Unknown: Adoption (0.0)
|   |   |   |   |   |   |   |   BreedGroup = Hound: Transfer (3.0)
|   |   |   |   |   |   |   |   BreedGroup = Group 3: Adoption (0.0)
|   |   |   |   |   |   |   |   BreedGroup = Sporting: Transfer (3.0)
|   |   |   |   |   |   |   |   BreedGroup = Group 1: Adoption (0.0)
|   |   |   |   |   |   |   |   BreedGroup = Terrier&Toy: Adoption (0.0)
|   |   |   |   |   |   |   Sex = Female: Adoption (14.0/4.0)
|   |   |   |   |   |   |   Sex = Unknown: Adoption (0.0)
|   |   |   |   |   |   Month = July
|   |   |   |   |   |   |   DaysuponOutcome <= 365: Adoption (6.0/1.0)
|   |   |   |   |   |   |   DaysuponOutcome > 365: Return_to_owner (6.0/2.0)
|   |   |   |   |   |   Month = November
|   |   |   |   |   |   |   WeekDay = Wed: Return_to_owner (3.0/1.0)
|   |   |   |   |   |   |   WeekDay = Sun
|   |   |   |   |   |   |   |   IsPopularBreed = No: Transfer (3.0/1.0)
|   |   |   |   |   |   |   |   IsPopularBreed = Yes: Adoption (3.0)
|   |   |   |   |   |   |   WeekDay = Sat: Adoption (4.0/2.0)
|   |   |   |   |   |   |   WeekDay = Fri: Return_to_owner (2.0)
|   |   |   |   |   |   |   WeekDay = Thu: Return_to_owner (1.0)
|   |   |   |   |   |   |   WeekDay = Tue: Return_to_owner (5.0/3.0)
|   |   |   |   |   |   |   WeekDay = Mon: Transfer (8.0/1.0)
|   |   |   |   |   |   Month = April: Adoption (12.0/6.0)
|   |   |   |   |   |   Month = March: Adoption (11.0)
|   |   |   |   |   |   Month = May: Adoption (30.0/8.0)
|   |   |   |   |   |   Month = December: Adoption (22.0/8.0)
|   |   |   |   |   |   Month = June: Adoption (18.0/4.0)
|   |   |   |   |   |   Month = September
|   |   |   |   |   |   |   IsHoliday = No
|   |   |   |   |   |   |   |   Sex = Male: Adoption (9.0/1.0)
|   |   |   |   |   |   |   |   Sex = Female: Return_to_owner (4.0/1.0)
|   |   |   |   |   |   |   |   Sex = Unknown: Adoption (0.0)
|   |   |   |   |   |   |   IsHoliday = Yes: Transfer (2.0)
|   |   |   |   |   |   Month = August: Adoption (19.0/7.0)
|   |   |   |   DaysuponOutcome > 730
|   |   |   |   |   DaysuponOutcome <= 3650
|   |   |   |   |   |   BreedGroup = Herding
|   |   |   |   |   |   |   DaysuponOutcome <= 2190
|   |   |   |   |   |   |   |   DayPeriod = Afternoon
|   |   |   |   |   |   |   |   |   Month = February
|   |   |   |   |   |   |   |   |   |   WeekDay = Wed: Adoption (1.0)
|   |   |   |   |   |   |   |   |   |   WeekDay = Sun: Return_to_owner (7.0/2.0)
|   |   |   |   |   |   |   |   |   |   WeekDay = Sat: Adoption (6.0/1.0)
|   |   |   |   |   |   |   |   |   |   WeekDay = Fri: Adoption (2.0/1.0)
|   |   |   |   |   |   |   |   |   |   WeekDay = Thu: Return_to_owner (3.0/2.0)
|   |   |   |   |   |   |   |   |   |   WeekDay = Tue: Return_to_owner (2.0)
|   |   |   |   |   |   |   |   |   |   WeekDay = Mon: Adoption (3.0)
|   |   |   |   |   |   |   |   |   Month = October: Adoption (40.0/21.0)
|   |   |   |   |   |   |   |   |   Month = January: Adoption (36.0/17.0)
|   |   |   |   |   |   |   |   |   Month = July: Adoption (21.0/9.0)
|   |   |   |   |   |   |   |   |   Month = November
|   |   |   |   |   |   |   |   |   |   WeekDay = Wed: Adoption (5.0/2.0)
|   |   |   |   |   |   |   |   |   |   WeekDay = Sun: Return_to_owner (3.0/2.0)
|   |   |   |   |   |   |   |   |   |   WeekDay = Sat: Adoption (7.0/2.0)
|   |   |   |   |   |   |   |   |   |   WeekDay = Fri: Return_to_owner (11.0/4.0)
|   |   |   |   |   |   |   |   |   |   WeekDay = Thu: Return_to_owner (2.0)
|   |   |   |   |   |   |   |   |   |   WeekDay = Tue
|   |   |   |   |   |   |   |   |   |   |   IsSingleColor = No: Return_to_owner (3.0/1.0)
|   |   |   |   |   |   |   |   |   |   |   IsSingleColor = Yes: Adoption (2.0/1.0)
|   |   |   |   |   |   |   |   |   |   WeekDay = Mon: Return_to_owner (3.0/2.0)
|   |   |   |   |   |   |   |   |   Month = April: Return_to_owner (25.0/11.0)
|   |   |   |   |   |   |   |   |   Month = March
|   |   |   |   |   |   |   |   |   |   IsSingleColor = No: Return_to_owner (21.0/11.0)
|   |   |   |   |   |   |   |   |   |   IsSingleColor = Yes: Adoption (4.0/1.0)
|   |   |   |   |   |   |   |   |   Month = May: Return_to_owner (21.0/9.0)
|   |   |   |   |   |   |   |   |   Month = December
|   |   |   |   |   |   |   |   |   |   WeekDay = Wed: Return_to_owner (6.0)
|   |   |   |   |   |   |   |   |   |   WeekDay = Sun: Return_to_owner (5.0/2.0)
|   |   |   |   |   |   |   |   |   |   WeekDay = Sat: Adoption (8.0/1.0)
|   |   |   |   |   |   |   |   |   |   WeekDay = Fri
|   |   |   |   |   |   |   |   |   |   |   Sex = Male: Return_to_owner (2.0/1.0)
|   |   |   |   |   |   |   |   |   |   |   Sex = Female: Transfer (3.0/1.0)
|   |   |   |   |   |   |   |   |   |   |   Sex = Unknown: Return_to_owner (0.0)
|   |   |   |   |   |   |   |   |   |   WeekDay = Thu: Return_to_owner (3.0/2.0)
|   |   |   |   |   |   |   |   |   |   WeekDay = Tue
|   |   |   |   |   |   |   |   |   |   |   IsMix = Yes: Return_to_owner (6.0/2.0)
|   |   |   |   |   |   |   |   |   |   |   IsMix = No: Adoption (2.0/1.0)
|   |   |   |   |   |   |   |   |   |   WeekDay = Mon: Return_to_owner (4.0/1.0)
|   |   |   |   |   |   |   |   |   Month = June: Adoption (20.0/9.0)
|   |   |   |   |   |   |   |   |   Month = September
|   |   |   |   |   |   |   |   |   |   Sex = Male: Adoption (12.0/5.0)
|   |   |   |   |   |   |   |   |   |   Sex = Female: Return_to_owner (8.0/4.0)
|   |   |   |   |   |   |   |   |   |   Sex = Unknown: Return_to_owner (0.0)
|   |   |   |   |   |   |   |   |   Month = August
|   |   |   |   |   |   |   |   |   |   IsPopularBreed = No
|   |   |   |   |   |   |   |   |   |   |   Sex = Male: Transfer (6.0/3.0)
|   |   |   |   |   |   |   |   |   |   |   Sex = Female: Adoption (2.0)
|   |   |   |   |   |   |   |   |   |   |   Sex = Unknown: Adoption (0.0)
|   |   |   |   |   |   |   |   |   |   IsPopularBreed = Yes
|   |   |   |   |   |   |   |   |   |   |   IsSingleColor = No: Return_to_owner (5.0/1.0)
|   |   |   |   |   |   |   |   |   |   |   IsSingleColor = Yes: Adoption (2.0)
|   |   |   |   |   |   |   |   DayPeriod = Morning
|   |   |   |   |   |   |   |   |   Month = February: Adoption (9.0/4.0)
|   |   |   |   |   |   |   |   |   Month = October: Return_to_owner (12.0/6.0)
|   |   |   |   |   |   |   |   |   Month = January: Adoption (7.0/4.0)
|   |   |   |   |   |   |   |   |   Month = July: Return_to_owner (4.0/2.0)
|   |   |   |   |   |   |   |   |   Month = November
|   |   |   |   |   |   |   |   |   |   IsPopularBreed = No
|   |   |   |   |   |   |   |   |   |   |   Sex = Male: Return_to_owner (2.0)
|   |   |   |   |   |   |   |   |   |   |   Sex = Female: Adoption (3.0/1.0)
|   |   |   |   |   |   |   |   |   |   |   Sex = Unknown: Return_to_owner (0.0)
|   |   |   |   |   |   |   |   |   |   IsPopularBreed = Yes: Adoption (3.0)
|   |   |   |   |   |   |   |   |   Month = April: Return_to_owner (5.0/3.0)
|   |   |   |   |   |   |   |   |   Month = March
|   |   |   |   |   |   |   |   |   |   DaysuponOutcome <= 1460: Transfer (3.0/1.0)
|   |   |   |   |   |   |   |   |   |   DaysuponOutcome > 1460: Return_to_owner (4.0)
|   |   |   |   |   |   |   |   |   Month = May
|   |   |   |   |   |   |   |   |   |   WeekDay = Wed: Transfer (3.0/1.0)
|   |   |   |   |   |   |   |   |   |   WeekDay = Sun: Return_to_owner (2.0)
|   |   |   |   |   |   |   |   |   |   WeekDay = Sat: Return_to_owner (1.0)
|   |   |   |   |   |   |   |   |   |   WeekDay = Fri: Return_to_owner (2.0/1.0)
|   |   |   |   |   |   |   |   |   |   WeekDay = Thu: Return_to_owner (0.0)
|   |   |   |   |   |   |   |   |   |   WeekDay = Tue: Adoption (2.0)
|   |   |   |   |   |   |   |   |   |   WeekDay = Mon: Adoption (1.0)
|   |   |   |   |   |   |   |   |   Month = December
|   |   |   |   |   |   |   |   |   |   IsPopularBreed = No
|   |   |   |   |   |   |   |   |   |   |   DaysuponOutcome <= 1095: Return_to_owner (2.0)
|   |   |   |   |   |   |   |   |   |   |   DaysuponOutcome > 1095: Adoption (4.0)
|   |   |   |   |   |   |   |   |   |   IsPopularBreed = Yes: Return_to_owner (3.0)
|   |   |   |   |   |   |   |   |   Month = June: Return_to_owner (8.0/5.0)
|   |   |   |   |   |   |   |   |   Month = September: Adoption (3.0/1.0)
|   |   |   |   |   |   |   |   |   Month = August
|   |   |   |   |   |   |   |   |   |   Sex = Male: Return_to_owner (4.0/1.0)
|   |   |   |   |   |   |   |   |   |   Sex = Female: Adoption (3.0/1.0)
|   |   |   |   |   |   |   |   |   |   Sex = Unknown: Return_to_owner (0.0)
|   |   |   |   |   |   |   |   DayPeriod = Evening
|   |   |   |   |   |   |   |   |   WeekDay = Wed: Return_to_owner (4.0/2.0)
|   |   |   |   |   |   |   |   |   WeekDay = Sun
|   |   |   |   |   |   |   |   |   |   DaysuponOutcome <= 1460: Transfer (2.0)
|   |   |   |   |   |   |   |   |   |   DaysuponOutcome > 1460: Adoption (3.0)
|   |   |   |   |   |   |   |   |   WeekDay = Sat: Adoption (3.0/1.0)
|   |   |   |   |   |   |   |   |   WeekDay = Fri: Return_to_owner (1.0)
|   |   |   |   |   |   |   |   |   WeekDay = Thu: Adoption (2.0)
|   |   |   |   |   |   |   |   |   WeekDay = Tue: Transfer (2.0)
|   |   |   |   |   |   |   |   |   WeekDay = Mon: Transfer (6.0/2.0)
|   |   |   |   |   |   |   DaysuponOutcome > 2190: Return_to_owner (155.0/76.0)
|   |   |   |   |   |   BreedGroup = Group 4: Return_to_owner (0.0)
|   |   |   |   |   |   BreedGroup = Pit Bull: Return_to_owner (547.0/308.0)
|   |   |   |   |   |   BreedGroup = Non-Sporting: Return_to_owner (174.0/83.0)
|   |   |   |   |   |   BreedGroup = Terrier
|   |   |   |   |   |   |   WeekDay = Wed
|   |   |   |   |   |   |   |   IsHoliday = No: Return_to_owner (50.0/22.0)
|   |   |   |   |   |   |   |   IsHoliday = Yes: Adoption (2.0)
|   |   |   |   |   |   |   WeekDay = Sun
|   |   |   |   |   |   |   |   Month = February
|   |   |   |   |   |   |   |   |   IsSingleColor = No: Return_to_owner (4.0/1.0)
|   |   |   |   |   |   |   |   |   IsSingleColor = Yes: Transfer (3.0/1.0)
|   |   |   |   |   |   |   |   Month = October: Adoption (3.0)
|   |   |   |   |   |   |   |   Month = January
|   |   |   |   |   |   |   |   |   IsSingleColor = No: Adoption (7.0/2.0)
|   |   |   |   |   |   |   |   |   IsSingleColor = Yes
|   |   |   |   |   |   |   |   |   |   DayPeriod = Afternoon: Return_to_owner (2.0)
|   |   |   |   |   |   |   |   |   |   DayPeriod = Morning: Adoption (2.0)
|   |   |   |   |   |   |   |   |   |   DayPeriod = Evening: Return_to_owner (0.0)
|   |   |   |   |   |   |   |   Month = July: Adoption (1.0)
|   |   |   |   |   |   |   |   Month = November: Return_to_owner (3.0/1.0)
|   |   |   |   |   |   |   |   Month = April: Return_to_owner (3.0)
|   |   |   |   |   |   |   |   Month = March: Return_to_owner (3.0/1.0)
|   |   |   |   |   |   |   |   Month = May: Return_to_owner (3.0/1.0)
|   |   |   |   |   |   |   |   Month = December
|   |   |   |   |   |   |   |   |   DayPeriod = Afternoon: Adoption (4.0/1.0)
|   |   |   |   |   |   |   |   |   DayPeriod = Morning: Return_to_owner (3.0)
|   |   |   |   |   |   |   |   |   DayPeriod = Evening: Return_to_owner (0.0)
|   |   |   |   |   |   |   |   Month = June
|   |   |   |   |   |   |   |   |   IsMix = Yes: Adoption (4.0/1.0)
|   |   |   |   |   |   |   |   |   IsMix = No: Return_to_owner (2.0)
|   |   |   |   |   |   |   |   Month = September: Return_to_owner (4.0/1.0)
|   |   |   |   |   |   |   |   Month = August: Adoption (1.0)
|   |   |   |   |   |   |   WeekDay = Sat: Adoption (52.0/17.0)
|   |   |   |   |   |   |   WeekDay = Fri
|   |   |   |   |   |   |   |   DayPeriod = Afternoon: Adoption (26.0/12.0)
|   |   |   |   |   |   |   |   DayPeriod = Morning: Transfer (12.0/6.0)
|   |   |   |   |   |   |   |   DayPeriod = Evening: Adoption (1.0)
|   |   |   |   |   |   |   WeekDay = Thu
|   |   |   |   |   |   |   |   Month = February: Return_to_owner (2.0/1.0)
|   |   |   |   |   |   |   |   Month = October: Return_to_owner (4.0/1.0)
|   |   |   |   |   |   |   |   Month = January: Return_to_owner (4.0/1.0)
|   |   |   |   |   |   |   |   Month = July: Adoption (2.0)
|   |   |   |   |   |   |   |   Month = November: Transfer (2.0)
|   |   |   |   |   |   |   |   Month = April: Return_to_owner (2.0/1.0)
|   |   |   |   |   |   |   |   Month = March: Return_to_owner (3.0/1.0)
|   |   |   |   |   |   |   |   Month = May: Return_to_owner (2.0/1.0)
|   |   |   |   |   |   |   |   Month = December
|   |   |   |   |   |   |   |   |   IsSingleColor = No: Adoption (4.0/1.0)
|   |   |   |   |   |   |   |   |   IsSingleColor = Yes: Transfer (2.0)
|   |   |   |   |   |   |   |   Month = June: Return_to_owner (3.0/2.0)
|   |   |   |   |   |   |   |   Month = September: Adoption (1.0)
|   |   |   |   |   |   |   |   Month = August
|   |   |   |   |   |   |   |   |   DayPeriod = Afternoon: Adoption (2.0/1.0)
|   |   |   |   |   |   |   |   |   DayPeriod = Morning: Return_to_owner (2.0/1.0)
|   |   |   |   |   |   |   |   |   DayPeriod = Evening: Return_to_owner (0.0)
|   |   |   |   |   |   |   WeekDay = Tue: Return_to_owner (45.0/23.0)
|   |   |   |   |   |   |   WeekDay = Mon
|   |   |   |   |   |   |   |   Sex = Male: Return_to_owner (25.0/13.0)
|   |   |   |   |   |   |   |   Sex = Female: Adoption (20.0/8.0)
|   |   |   |   |   |   |   |   Sex = Unknown: Return_to_owner (0.0)
|   |   |   |   |   |   BreedGroup = Toy
|   |   |   |   |   |   |   DayPeriod = Afternoon
|   |   |   |   |   |   |   |   Month = February
|   |   |   |   |   |   |   |   |   Sex = Male
|   |   |   |   |   |   |   |   |   |   IsSingleColor = No: Return_to_owner (23.0/8.0)
|   |   |   |   |   |   |   |   |   |   IsSingleColor = Yes: Adoption (16.0/8.0)
|   |   |   |   |   |   |   |   |   Sex = Female
|   |   |   |   |   |   |   |   |   |   DaysuponOutcome <= 2190: Adoption (24.0/8.0)
|   |   |   |   |   |   |   |   |   |   DaysuponOutcome > 2190: Return_to_owner (7.0/3.0)
|   |   |   |   |   |   |   |   |   Sex = Unknown: Return_to_owner (0.0)
|   |   |   |   |   |   |   |   Month = October
|   |   |   |   |   |   |   |   |   WeekDay = Wed: Return_to_owner (5.0/1.0)
|   |   |   |   |   |   |   |   |   WeekDay = Sun: Adoption (9.0/3.0)
|   |   |   |   |   |   |   |   |   WeekDay = Sat
|   |   |   |   |   |   |   |   |   |   Sex = Male: Return_to_owner (8.0/3.0)
|   |   |   |   |   |   |   |   |   |   Sex = Female: Adoption (5.0/2.0)
|   |   |   |   |   |   |   |   |   |   Sex = Unknown: Return_to_owner (0.0)
|   |   |   |   |   |   |   |   |   WeekDay = Fri
|   |   |   |   |   |   |   |   |   |   DaysuponOutcome <= 2555: Return_to_owner (6.0/1.0)
|   |   |   |   |   |   |   |   |   |   DaysuponOutcome > 2555: Adoption (3.0)
|   |   |   |   |   |   |   |   |   WeekDay = Thu: Adoption (8.0/4.0)
|   |   |   |   |   |   |   |   |   WeekDay = Tue: Return_to_owner (11.0/3.0)
|   |   |   |   |   |   |   |   |   WeekDay = Mon
|   |   |   |   |   |   |   |   |   |   IsPopularBreed = No: Transfer (9.0/3.0)
|   |   |   |   |   |   |   |   |   |   IsPopularBreed = Yes: Adoption (2.0)
|   |   |   |   |   |   |   |   Month = January
|   |   |   |   |   |   |   |   |   WeekDay = Wed: Return_to_owner (10.0/5.0)
|   |   |   |   |   |   |   |   |   WeekDay = Sun: Adoption (6.0/1.0)
|   |   |   |   |   |   |   |   |   WeekDay = Sat
|   |   |   |   |   |   |   |   |   |   IsSingleColor = No
|   |   |   |   |   |   |   |   |   |   |   DaysuponOutcome <= 1095: Return_to_owner (3.0/1.0)
|   |   |   |   |   |   |   |   |   |   |   DaysuponOutcome > 1095: Adoption (7.0/2.0)
|   |   |   |   |   |   |   |   |   |   IsSingleColor = Yes
|   |   |   |   |   |   |   |   |   |   |   Sex = Male: Return_to_owner (3.0/1.0)
|   |   |   |   |   |   |   |   |   |   |   Sex = Female: Adoption (3.0)
|   |   |   |   |   |   |   |   |   |   |   Sex = Unknown: Adoption (0.0)
|   |   |   |   |   |   |   |   |   WeekDay = Fri: Transfer (7.0/3.0)
|   |   |   |   |   |   |   |   |   WeekDay = Thu: Return_to_owner (9.0/2.0)
|   |   |   |   |   |   |   |   |   WeekDay = Tue
|   |   |   |   |   |   |   |   |   |   DaysuponOutcome <= 2555: Adoption (7.0/2.0)
|   |   |   |   |   |   |   |   |   |   DaysuponOutcome > 2555: Euthanasia (2.0/1.0)
|   |   |   |   |   |   |   |   |   WeekDay = Mon
|   |   |   |   |   |   |   |   |   |   Sex = Male: Adoption (5.0/2.0)
|   |   |   |   |   |   |   |   |   |   Sex = Female: Return_to_owner (2.0/1.0)
|   |   |   |   |   |   |   |   |   |   Sex = Unknown: Adoption (0.0)
|   |   |   |   |   |   |   |   Month = July
|   |   |   |   |   |   |   |   |   IsPopularBreed = No
|   |   |   |   |   |   |   |   |   |   WeekDay = Wed
|   |   |   |   |   |   |   |   |   |   |   IsSingleColor = No: Transfer (7.0/2.0)
|   |   |   |   |   |   |   |   |   |   |   IsSingleColor = Yes: Return_to_owner (4.0/2.0)
|   |   |   |   |   |   |   |   |   |   WeekDay = Sun
|   |   |   |   |   |   |   |   |   |   |   IsSingleColor = No: Adoption (3.0/1.0)
|   |   |   |   |   |   |   |   |   |   |   IsSingleColor = Yes
|   |   |   |   |   |   |   |   |   |   |   |   DaysuponOutcome <= 1095: Return_to_owner (2.0)
|   |   |   |   |   |   |   |   |   |   |   |   DaysuponOutcome > 1095: Adoption (3.0/1.0)
|   |   |   |   |   |   |   |   |   |   WeekDay = Sat
|   |   |   |   |   |   |   |   |   |   |   Sex = Male: Return_to_owner (3.0)
|   |   |   |   |   |   |   |   |   |   |   Sex = Female: Adoption (6.0/2.0)
|   |   |   |   |   |   |   |   |   |   |   Sex = Unknown: Return_to_owner (0.0)
|   |   |   |   |   |   |   |   |   |   WeekDay = Fri
|   |   |   |   |   |   |   |   |   |   |   Sex = Male
|   |   |   |   |   |   |   |   |   |   |   |   IsSingleColor = No: Return_to_owner (4.0/1.0)
|   |   |   |   |   |   |   |   |   |   |   |   IsSingleColor = Yes: Adoption (2.0)
|   |   |   |   |   |   |   |   |   |   |   Sex = Female: Adoption (3.0)
|   |   |   |   |   |   |   |   |   |   |   Sex = Unknown: Adoption (0.0)
|   |   |   |   |   |   |   |   |   |   WeekDay = Thu
|   |   |   |   |   |   |   |   |   |   |   IsMix = Yes: Adoption (5.0/2.0)
|   |   |   |   |   |   |   |   |   |   |   IsMix = No: Return_to_owner (2.0/1.0)
|   |   |   |   |   |   |   |   |   |   WeekDay = Tue: Return_to_owner (4.0/1.0)
|   |   |   |   |   |   |   |   |   |   WeekDay = Mon: Return_to_owner (6.0/2.0)
|   |   |   |   |   |   |   |   |   IsPopularBreed = Yes: Return_to_owner (12.0/3.0)
|   |   |   |   |   |   |   |   Month = November
|   |   |   |   |   |   |   |   |   IsMix = Yes
|   |   |   |   |   |   |   |   |   |   WeekDay = Wed: Adoption (3.0/1.0)
|   |   |   |   |   |   |   |   |   |   WeekDay = Sun
|   |   |   |   |   |   |   |   |   |   |   IsSingleColor = No
|   |   |   |   |   |   |   |   |   |   |   |   DaysuponOutcome <= 1825: Adoption (7.0/2.0)
|   |   |   |   |   |   |   |   |   |   |   |   DaysuponOutcome > 1825: Return_to_owner (2.0/1.0)
|   |   |   |   |   |   |   |   |   |   |   IsSingleColor = Yes: Return_to_owner (6.0/1.0)
|   |   |   |   |   |   |   |   |   |   WeekDay = Sat
|   |   |   |   |   |   |   |   |   |   |   DaysuponOutcome <= 1825: Adoption (5.0/2.0)
|   |   |   |   |   |   |   |   |   |   |   DaysuponOutcome > 1825: Return_to_owner (2.0)
|   |   |   |   |   |   |   |   |   |   WeekDay = Fri
|   |   |   |   |   |   |   |   |   |   |   IsHoliday = No
|   |   |   |   |   |   |   |   |   |   |   |   DaysuponOutcome <= 1825: Return_to_owner (2.0)
|   |   |   |   |   |   |   |   |   |   |   |   DaysuponOutcome > 1825: Adoption (5.0/2.0)
|   |   |   |   |   |   |   |   |   |   |   IsHoliday = Yes: Adoption (2.0)
|   |   |   |   |   |   |   |   |   |   WeekDay = Thu
|   |   |   |   |   |   |   |   |   |   |   IsHoliday = No: Return_to_owner (2.0)
|   |   |   |   |   |   |   |   |   |   |   IsHoliday = Yes: Transfer (3.0)
|   |   |   |   |   |   |   |   |   |   WeekDay = Tue: Return_to_owner (4.0/1.0)
|   |   |   |   |   |   |   |   |   |   WeekDay = Mon: Return_to_owner (5.0/1.0)
|   |   |   |   |   |   |   |   |   IsMix = No: Transfer (2.0)
|   |   |   |   |   |   |   |   Month = April: Return_to_owner (59.0/27.0)
|   |   |   |   |   |   |   |   Month = March
|   |   |   |   |   |   |   |   |   Sex = Male: Return_to_owner (28.0/15.0)
|   |   |   |   |   |   |   |   |   Sex = Female
|   |   |   |   |   |   |   |   |   |   IsMix = Yes
|   |   |   |   |   |   |   |   |   |   |   WeekDay = Wed: Adoption (5.0/1.0)
|   |   |   |   |   |   |   |   |   |   |   WeekDay = Sun
|   |   |   |   |   |   |   |   |   |   |   |   IsPopularBreed = No
|   |   |   |   |   |   |   |   |   |   |   |   |   DaysuponOutcome <= 2555: Transfer (2.0)
|   |   |   |   |   |   |   |   |   |   |   |   |   DaysuponOutcome > 2555: Adoption (2.0)
|   |   |   |   |   |   |   |   |   |   |   |   IsPopularBreed = Yes: Return_to_owner (2.0/1.0)
|   |   |   |   |   |   |   |   |   |   |   WeekDay = Sat: Adoption (1.0)
|   |   |   |   |   |   |   |   |   |   |   WeekDay = Fri
|   |   |   |   |   |   |   |   |   |   |   |   IsPopularBreed = No: Return_to_owner (4.0/1.0)
|   |   |   |   |   |   |   |   |   |   |   |   IsPopularBreed = Yes: Transfer (2.0)
|   |   |   |   |   |   |   |   |   |   |   WeekDay = Thu: Transfer (4.0/1.0)
|   |   |   |   |   |   |   |   |   |   |   WeekDay = Tue
|   |   |   |   |   |   |   |   |   |   |   |   DaysuponOutcome <= 1095: Adoption (2.0/1.0)
|   |   |   |   |   |   |   |   |   |   |   |   DaysuponOutcome > 1095: Return_to_owner (3.0/1.0)
|   |   |   |   |   |   |   |   |   |   |   WeekDay = Mon: Return_to_owner (1.0)
|   |   |   |   |   |   |   |   |   |   IsMix = No: Adoption (5.0)
|   |   |   |   |   |   |   |   |   Sex = Unknown: Adoption (0.0)
|   |   |   |   |   |   |   |   Month = May
|   |   |   |   |   |   |   |   |   WeekDay = Wed
|   |   |   |   |   |   |   |   |   |   IsSingleColor = No: Adoption (8.0/4.0)
|   |   |   |   |   |   |   |   |   |   IsSingleColor = Yes: Return_to_owner (2.0)
|   |   |   |   |   |   |   |   |   WeekDay = Sun
|   |   |   |   |   |   |   |   |   |   DaysuponOutcome <= 1825: Return_to_owner (4.0)
|   |   |   |   |   |   |   |   |   |   DaysuponOutcome > 1825: Transfer (3.0)
|   |   |   |   |   |   |   |   |   WeekDay = Sat
|   |   |   |   |   |   |   |   |   |   IsSingleColor = No: Return_to_owner (8.0/1.0)
|   |   |   |   |   |   |   |   |   |   IsSingleColor = Yes: Adoption (5.0)
|   |   |   |   |   |   |   |   |   WeekDay = Fri
|   |   |   |   |   |   |   |   |   |   IsPopularBreed = No
|   |   |   |   |   |   |   |   |   |   |   DaysuponOutcome <= 1460: Return_to_owner (7.0/2.0)
|   |   |   |   |   |   |   |   |   |   |   DaysuponOutcome > 1460: Adoption (3.0)
|   |   |   |   |   |   |   |   |   |   IsPopularBreed = Yes: Return_to_owner (4.0/2.0)
|   |   |   |   |   |   |   |   |   WeekDay = Thu
|   |   |   |   |   |   |   |   |   |   Sex = Male: Adoption (5.0/1.0)
|   |   |   |   |   |   |   |   |   |   Sex = Female: Return_to_owner (4.0/1.0)
|   |   |   |   |   |   |   |   |   |   Sex = Unknown: Adoption (0.0)
|   |   |   |   |   |   |   |   |   WeekDay = Tue: Return_to_owner (6.0/3.0)
|   |   |   |   |   |   |   |   |   WeekDay = Mon
|   |   |   |   |   |   |   |   |   |   DaysuponOutcome <= 1460
|   |   |   |   |   |   |   |   |   |   |   DaysuponOutcome <= 1095: Return_to_owner (6.0/2.0)
|   |   |   |   |   |   |   |   |   |   |   DaysuponOutcome > 1095: Adoption (2.0)
|   |   |   |   |   |   |   |   |   |   DaysuponOutcome > 1460: Return_to_owner (4.0)
|   |   |   |   |   |   |   |   Month = December
|   |   |   |   |   |   |   |   |   IsPopularBreed = No
|   |   |   |   |   |   |   |   |   |   WeekDay = Wed: Adoption (3.0/1.0)
|   |   |   |   |   |   |   |   |   |   WeekDay = Sun
|   |   |   |   |   |   |   |   |   |   |   IsSingleColor = No
|   |   |   |   |   |   |   |   |   |   |   |   IsHoliday = No: Return_to_owner (2.0)
|   |   |   |   |   |   |   |   |   |   |   |   IsHoliday = Yes: Adoption (3.0/1.0)
|   |   |   |   |   |   |   |   |   |   |   IsSingleColor = Yes: Adoption (6.0/1.0)
|   |   |   |   |   |   |   |   |   |   WeekDay = Sat
|   |   |   |   |   |   |   |   |   |   |   Sex = Male
|   |   |   |   |   |   |   |   |   |   |   |   DaysuponOutcome <= 1460: Transfer (2.0)
|   |   |   |   |   |   |   |   |   |   |   |   DaysuponOutcome > 1460: Adoption (2.0)
|   |   |   |   |   |   |   |   |   |   |   Sex = Female: Return_to_owner (2.0)
|   |   |   |   |   |   |   |   |   |   |   Sex = Unknown: Return_to_owner (0.0)
|   |   |   |   |   |   |   |   |   |   WeekDay = Fri
|   |   |   |   |   |   |   |   |   |   |   IsHoliday = No: Return_to_owner (2.0/1.0)
|   |   |   |   |   |   |   |   |   |   |   IsHoliday = Yes: Transfer (6.0/2.0)
|   |   |   |   |   |   |   |   |   |   WeekDay = Thu: Return_to_owner (5.0/2.0)
|   |   |   |   |   |   |   |   |   |   WeekDay = Tue
|   |   |   |   |   |   |   |   |   |   |   IsSingleColor = No
|   |   |   |   |   |   |   |   |   |   |   |   DaysuponOutcome <= 1460: Transfer (3.0/1.0)
|   |   |   |   |   |   |   |   |   |   |   |   DaysuponOutcome > 1460: Adoption (3.0)
|   |   |   |   |   |   |   |   |   |   |   IsSingleColor = Yes: Return_to_owner (3.0)
|   |   |   |   |   |   |   |   |   |   WeekDay = Mon: Return_to_owner (9.0/4.0)
|   |   |   |   |   |   |   |   |   IsPopularBreed = Yes: Return_to_owner (14.0/3.0)
|   |   |   |   |   |   |   |   Month = June
|   |   |   |   |   |   |   |   |   IsHoliday = No: Return_to_owner (38.0/22.0)
|   |   |   |   |   |   |   |   |   IsHoliday = Yes: Adoption (6.0/1.0)
|   |   |   |   |   |   |   |   Month = September
|   |   |   |   |   |   |   |   |   Sex = Male: Return_to_owner (25.0/10.0)
|   |   |   |   |   |   |   |   |   Sex = Female: Adoption (24.0/13.0)
|   |   |   |   |   |   |   |   |   Sex = Unknown: Return_to_owner (0.0)
|   |   |   |   |   |   |   |   Month = August
|   |   |   |   |   |   |   |   |   WeekDay = Wed
|   |   |   |   |   |   |   |   |   |   DaysuponOutcome <= 1095: Adoption (2.0/1.0)
|   |   |   |   |   |   |   |   |   |   DaysuponOutcome > 1095: Return_to_owner (3.0)
|   |   |   |   |   |   |   |   |   WeekDay = Sun: Adoption (8.0)
|   |   |   |   |   |   |   |   |   WeekDay = Sat: Adoption (3.0/1.0)
|   |   |   |   |   |   |   |   |   WeekDay = Fri
|   |   |   |   |   |   |   |   |   |   Sex = Male: Transfer (2.0)
|   |   |   |   |   |   |   |   |   |   Sex = Female
|   |   |   |   |   |   |   |   |   |   |   DaysuponOutcome <= 1095: Adoption (2.0)
|   |   |   |   |   |   |   |   |   |   |   DaysuponOutcome > 1095: Return_to_owner (6.0)
|   |   |   |   |   |   |   |   |   |   Sex = Unknown: Return_to_owner (0.0)
|   |   |   |   |   |   |   |   |   WeekDay = Thu
|   |   |   |   |   |   |   |   |   |   DaysuponOutcome <= 1825: Transfer (3.0/1.0)
|   |   |   |   |   |   |   |   |   |   DaysuponOutcome > 1825: Return_to_owner (4.0)
|   |   |   |   |   |   |   |   |   WeekDay = Tue
|   |   |   |   |   |   |   |   |   |   DaysuponOutcome <= 2190: Adoption (5.0/1.0)
|   |   |   |   |   |   |   |   |   |   DaysuponOutcome > 2190
|   |   |   |   |   |   |   |   |   |   |   Sex = Male: Return_to_owner (2.0)
|   |   |   |   |   |   |   |   |   |   |   Sex = Female: Transfer (3.0/1.0)
|   |   |   |   |   |   |   |   |   |   |   Sex = Unknown: Return_to_owner (0.0)
|   |   |   |   |   |   |   |   |   WeekDay = Mon: Adoption (8.0/2.0)
|   |   |   |   |   |   |   DayPeriod = Morning
|   |   |   |   |   |   |   |   Month = February: Return_to_owner (11.0/4.0)
|   |   |   |   |   |   |   |   Month = October: Adoption (23.0/12.0)
|   |   |   |   |   |   |   |   Month = January
|   |   |   |   |   |   |   |   |   WeekDay = Wed: Adoption (3.0/1.0)
|   |   |   |   |   |   |   |   |   WeekDay = Sun: Adoption (3.0/1.0)
|   |   |   |   |   |   |   |   |   WeekDay = Sat: Return_to_owner (3.0/1.0)
|   |   |   |   |   |   |   |   |   WeekDay = Fri: Return_to_owner (2.0/1.0)
|   |   |   |   |   |   |   |   |   WeekDay = Thu: Return_to_owner (3.0)
|   |   |   |   |   |   |   |   |   WeekDay = Tue
|   |   |   |   |   |   |   |   |   |   Sex = Male: Transfer (2.0)
|   |   |   |   |   |   |   |   |   |   Sex = Female: Adoption (2.0)
|   |   |   |   |   |   |   |   |   |   Sex = Unknown: Adoption (0.0)
|   |   |   |   |   |   |   |   |   WeekDay = Mon
|   |   |   |   |   |   |   |   |   |   Sex = Male: Adoption (2.0)
|   |   |   |   |   |   |   |   |   |   Sex = Female: Return_to_owner (2.0)
|   |   |   |   |   |   |   |   |   |   Sex = Unknown: Return_to_owner (0.0)
|   |   |   |   |   |   |   |   Month = July: Adoption (15.0/8.0)
|   |   |   |   |   |   |   |   Month = November: Return_to_owner (20.0/7.0)
|   |   |   |   |   |   |   |   Month = April
|   |   |   |   |   |   |   |   |   WeekDay = Wed
|   |   |   |   |   |   |   |   |   |   IsSingleColor = No: Euthanasia (3.0/1.0)
|   |   |   |   |   |   |   |   |   |   IsSingleColor = Yes: Transfer (5.0/2.0)
|   |   |   |   |   |   |   |   |   WeekDay = Sun: Return_to_owner (1.0)
|   |   |   |   |   |   |   |   |   WeekDay = Sat: Adoption (3.0/1.0)
|   |   |   |   |   |   |   |   |   WeekDay = Fri: Adoption (1.0)
|   |   |   |   |   |   |   |   |   WeekDay = Thu: Return_to_owner (4.0/1.0)
|   |   |   |   |   |   |   |   |   WeekDay = Tue: Return_to_owner (2.0/1.0)
|   |   |   |   |   |   |   |   |   WeekDay = Mon: Return_to_owner (0.0)
|   |   |   |   |   |   |   |   Month = March: Adoption (21.0/10.0)
|   |   |   |   |   |   |   |   Month = May: Return_to_owner (23.0/11.0)
|   |   |   |   |   |   |   |   Month = December
|   |   |   |   |   |   |   |   |   Sex = Male
|   |   |   |   |   |   |   |   |   |   DaysuponOutcome <= 2555: Return_to_owner (9.0/3.0)
|   |   |   |   |   |   |   |   |   |   DaysuponOutcome > 2555: Adoption (4.0/1.0)
|   |   |   |   |   |   |   |   |   Sex = Female: Adoption (13.0/7.0)
|   |   |   |   |   |   |   |   |   Sex = Unknown: Return_to_owner (0.0)
|   |   |   |   |   |   |   |   Month = June
|   |   |   |   |   |   |   |   |   IsPopularBreed = No
|   |   |   |   |   |   |   |   |   |   DaysuponOutcome <= 2190: Return_to_owner (6.0/1.0)
|   |   |   |   |   |   |   |   |   |   DaysuponOutcome > 2190: Transfer (4.0/1.0)
|   |   |   |   |   |   |   |   |   IsPopularBreed = Yes: Adoption (6.0/2.0)
|   |   |   |   |   |   |   |   Month = September
|   |   |   |   |   |   |   |   |   Sex = Male
|   |   |   |   |   |   |   |   |   |   IsPopularBreed = No: Transfer (12.0/4.0)
|   |   |   |   |   |   |   |   |   |   IsPopularBreed = Yes: Adoption (3.0/1.0)
|   |   |   |   |   |   |   |   |   Sex = Female: Return_to_owner (5.0/1.0)
|   |   |   |   |   |   |   |   |   Sex = Unknown: Transfer (0.0)
|   |   |   |   |   |   |   |   Month = August
|   |   |   |   |   |   |   |   |   IsSingleColor = No: Return_to_owner (9.0/3.0)
|   |   |   |   |   |   |   |   |   IsSingleColor = Yes
|   |   |   |   |   |   |   |   |   |   Sex = Male: Adoption (4.0/1.0)
|   |   |   |   |   |   |   |   |   |   Sex = Female: Return_to_owner (2.0)
|   |   |   |   |   |   |   |   |   |   Sex = Unknown: Adoption (0.0)
|   |   |   |   |   |   |   DayPeriod = Evening: Adoption (60.0/30.0)
|   |   |   |   |   |   BreedGroup = Working
|   |   |   |   |   |   |   DaysuponOutcome <= 2555
|   |   |   |   |   |   |   |   DayPeriod = Afternoon
|   |   |   |   |   |   |   |   |   WeekDay = Wed
|   |   |   |   |   |   |   |   |   |   IsSingleColor = No: Return_to_owner (18.0/9.0)
|   |   |   |   |   |   |   |   |   |   IsSingleColor = Yes: Adoption (6.0/1.0)
|   |   |   |   |   |   |   |   |   WeekDay = Sun
|   |   |   |   |   |   |   |   |   |   Month = February
|   |   |   |   |   |   |   |   |   |   |   IsPopularBreed = No
|   |   |   |   |   |   |   |   |   |   |   |   DaysuponOutcome <= 1460: Return_to_owner (2.0)
|   |   |   |   |   |   |   |   |   |   |   |   DaysuponOutcome > 1460: Adoption (3.0/1.0)
|   |   |   |   |   |   |   |   |   |   |   IsPopularBreed = Yes: Adoption (2.0)
|   |   |   |   |   |   |   |   |   |   Month = October: Adoption (5.0/1.0)
|   |   |   |   |   |   |   |   |   |   Month = January
|   |   |   |   |   |   |   |   |   |   |   Sex = Male: Adoption (3.0/1.0)
|   |   |   |   |   |   |   |   |   |   |   Sex = Female: Return_to_owner (2.0)
|   |   |   |   |   |   |   |   |   |   |   Sex = Unknown: Return_to_owner (0.0)
|   |   |   |   |   |   |   |   |   |   Month = July: Return_to_owner (3.0)
|   |   |   |   |   |   |   |   |   |   Month = November: Adoption (3.0/1.0)
|   |   |   |   |   |   |   |   |   |   Month = April: Return_to_owner (2.0/1.0)
|   |   |   |   |   |   |   |   |   |   Month = March: Return_to_owner (7.0/2.0)
|   |   |   |   |   |   |   |   |   |   Month = May: Adoption (2.0)
|   |   |   |   |   |   |   |   |   |   Month = December: Adoption (4.0/1.0)
|   |   |   |   |   |   |   |   |   |   Month = June: Return_to_owner (3.0/1.0)
|   |   |   |   |   |   |   |   |   |   Month = September: Adoption (4.0)
|   |   |   |   |   |   |   |   |   |   Month = August: Return_to_owner (1.0)
|   |   |   |   |   |   |   |   |   WeekDay = Sat
|   |   |   |   |   |   |   |   |   |   Sex = Male: Adoption (20.0/8.0)
|   |   |   |   |   |   |   |   |   |   Sex = Female: Return_to_owner (9.0/2.0)
|   |   |   |   |   |   |   |   |   |   Sex = Unknown: Adoption (0.0)
|   |   |   |   |   |   |   |   |   WeekDay = Fri: Return_to_owner (27.0/14.0)
|   |   |   |   |   |   |   |   |   WeekDay = Thu
|   |   |   |   |   |   |   |   |   |   Sex = Male: Adoption (16.0/10.0)
|   |   |   |   |   |   |   |   |   |   Sex = Female: Transfer (15.0/8.0)
|   |   |   |   |   |   |   |   |   |   Sex = Unknown: Return_to_owner (0.0)
|   |   |   |   |   |   |   |   |   WeekDay = Tue
|   |   |   |   |   |   |   |   |   |   DaysuponOutcome <= 1095: Adoption (20.0/11.0)
|   |   |   |   |   |   |   |   |   |   DaysuponOutcome > 1095: Return_to_owner (17.0/6.0)
|   |   |   |   |   |   |   |   |   WeekDay = Mon
|   |   |   |   |   |   |   |   |   |   Sex = Male
|   |   |   |   |   |   |   |   |   |   |   IsMix = Yes: Adoption (12.0/4.0)
|   |   |   |   |   |   |   |   |   |   |   IsMix = No: Return_to_owner (2.0)
|   |   |   |   |   |   |   |   |   |   Sex = Female: Return_to_owner (16.0/6.0)
|   |   |   |   |   |   |   |   |   |   Sex = Unknown: Return_to_owner (0.0)
|   |   |   |   |   |   |   |   DayPeriod = Morning
|   |   |   |   |   |   |   |   |   WeekDay = Wed: Return_to_owner (6.0/1.0)
|   |   |   |   |   |   |   |   |   WeekDay = Sun
|   |   |   |   |   |   |   |   |   |   IsMix = Yes
|   |   |   |   |   |   |   |   |   |   |   IsSingleColor = No: Adoption (4.0/1.0)
|   |   |   |   |   |   |   |   |   |   |   IsSingleColor = Yes: Return_to_owner (3.0)
|   |   |   |   |   |   |   |   |   |   IsMix = No: Return_to_owner (4.0)
|   |   |   |   |   |   |   |   |   WeekDay = Sat: Adoption (12.0/5.0)
|   |   |   |   |   |   |   |   |   WeekDay = Fri
|   |   |   |   |   |   |   |   |   |   DaysuponOutcome <= 1095: Return_to_owner (3.0/2.0)
|   |   |   |   |   |   |   |   |   |   DaysuponOutcome > 1095: Transfer (3.0)
|   |   |   |   |   |   |   |   |   WeekDay = Thu: Return_to_owner (10.0/5.0)
|   |   |   |   |   |   |   |   |   WeekDay = Tue
|   |   |   |   |   |   |   |   |   |   IsSingleColor = No: Adoption (6.0/2.0)
|   |   |   |   |   |   |   |   |   |   IsSingleColor = Yes: Return_to_owner (5.0/2.0)
|   |   |   |   |   |   |   |   |   WeekDay = Mon
|   |   |   |   |   |   |   |   |   |   Sex = Male: Return_to_owner (2.0/1.0)
|   |   |   |   |   |   |   |   |   |   Sex = Female: Transfer (4.0/1.0)
|   |   |   |   |   |   |   |   |   |   Sex = Unknown: Transfer (0.0)
|   |   |   |   |   |   |   |   DayPeriod = Evening: Adoption (12.0/1.0)
|   |   |   |   |   |   |   DaysuponOutcome > 2555
|   |   |   |   |   |   |   |   WeekDay = Wed
|   |   |   |   |   |   |   |   |   IsMix = Yes: Return_to_owner (6.0/2.0)
|   |   |   |   |   |   |   |   |   IsMix = No: Euthanasia (2.0/1.0)
|   |   |   |   |   |   |   |   WeekDay = Sun: Adoption (6.0/1.0)
|   |   |   |   |   |   |   |   WeekDay = Sat: Return_to_owner (8.0/2.0)
|   |   |   |   |   |   |   |   WeekDay = Fri: Return_to_owner (13.0/5.0)
|   |   |   |   |   |   |   |   WeekDay = Thu
|   |   |   |   |   |   |   |   |   Sex = Male: Return_to_owner (5.0/2.0)
|   |   |   |   |   |   |   |   |   Sex = Female
|   |   |   |   |   |   |   |   |   |   Season = Winter: Adoption (1.0)
|   |   |   |   |   |   |   |   |   |   Season = Fall: Adoption (2.0)
|   |   |   |   |   |   |   |   |   |   Season = Summer: Adoption (1.0)
|   |   |   |   |   |   |   |   |   |   Season = Spring: Return_to_owner (3.0)
|   |   |   |   |   |   |   |   |   Sex = Unknown: Return_to_owner (0.0)
|   |   |   |   |   |   |   |   WeekDay = Tue: Return_to_owner (11.0/1.0)
|   |   |   |   |   |   |   |   WeekDay = Mon
|   |   |   |   |   |   |   |   |   DaysuponOutcome <= 3285: Return_to_owner (5.0/2.0)
|   |   |   |   |   |   |   |   |   DaysuponOutcome > 3285: Transfer (2.0)
|   |   |   |   |   |   BreedGroup = Group 2: Return_to_owner (0.0)
|   |   |   |   |   |   BreedGroup = Unknown: Adoption (47.0/23.0)
|   |   |   |   |   |   BreedGroup = Hound
|   |   |   |   |   |   |   IsHoliday = No
|   |   |   |   |   |   |   |   WeekDay = Wed: Return_to_owner (40.0/17.0)
|   |   |   |   |   |   |   |   WeekDay = Sun
|   |   |   |   |   |   |   |   |   Month = February: Return_to_owner (4.0/2.0)
|   |   |   |   |   |   |   |   |   Month = October: Return_to_owner (8.0/3.0)
|   |   |   |   |   |   |   |   |   Month = January
|   |   |   |   |   |   |   |   |   |   Sex = Male
|   |   |   |   |   |   |   |   |   |   |   IsSingleColor = No: Adoption (3.0/1.0)
|   |   |   |   |   |   |   |   |   |   |   IsSingleColor = Yes: Return_to_owner (3.0/1.0)
|   |   |   |   |   |   |   |   |   |   Sex = Female: Transfer (3.0/1.0)
|   |   |   |   |   |   |   |   |   |   Sex = Unknown: Return_to_owner (0.0)
|   |   |   |   |   |   |   |   |   Month = July: Return_to_owner (3.0/1.0)
|   |   |   |   |   |   |   |   |   Month = November
|   |   |   |   |   |   |   |   |   |   IsSingleColor = No
|   |   |   |   |   |   |   |   |   |   |   IsMix = Yes: Adoption (2.0)
|   |   |   |   |   |   |   |   |   |   |   IsMix = No: Return_to_owner (2.0)
|   |   |   |   |   |   |   |   |   |   IsSingleColor = Yes: Return_to_owner (4.0/1.0)
|   |   |   |   |   |   |   |   |   Month = April: Return_to_owner (2.0/1.0)
|   |   |   |   |   |   |   |   |   Month = March: Adoption (5.0/2.0)
|   |   |   |   |   |   |   |   |   Month = May
|   |   |   |   |   |   |   |   |   |   DaysuponOutcome <= 1095: Return_to_owner (2.0/1.0)
|   |   |   |   |   |   |   |   |   |   DaysuponOutcome > 1095: Adoption (3.0/1.0)
|   |   |   |   |   |   |   |   |   Month = December: Adoption (7.0)
|   |   |   |   |   |   |   |   |   Month = June
|   |   |   |   |   |   |   |   |   |   IsSingleColor = No: Return_to_owner (4.0/1.0)
|   |   |   |   |   |   |   |   |   |   IsSingleColor = Yes: Adoption (2.0)
|   |   |   |   |   |   |   |   |   Month = September: Adoption (5.0/1.0)
|   |   |   |   |   |   |   |   |   Month = August: Return_to_owner (6.0/2.0)
|   |   |   |   |   |   |   |   WeekDay = Sat
|   |   |   |   |   |   |   |   |   DayPeriod = Afternoon
|   |   |   |   |   |   |   |   |   |   Month = February: Adoption (2.0)
|   |   |   |   |   |   |   |   |   |   Month = October: Return_to_owner (2.0/1.0)
|   |   |   |   |   |   |   |   |   |   Month = January
|   |   |   |   |   |   |   |   |   |   |   IsSingleColor = No: Return_to_owner (2.0/1.0)
|   |   |   |   |   |   |   |   |   |   |   IsSingleColor = Yes: Adoption (3.0)
|   |   |   |   |   |   |   |   |   |   Month = July: Adoption (2.0)
|   |   |   |   |   |   |   |   |   |   Month = November: Return_to_owner (3.0/1.0)
|   |   |   |   |   |   |   |   |   |   Month = April: Adoption (0.0)
|   |   |   |   |   |   |   |   |   |   Month = March: Adoption (0.0)
|   |   |   |   |   |   |   |   |   |   Month = May: Adoption (0.0)
|   |   |   |   |   |   |   |   |   |   Month = December: Return_to_owner (5.0/1.0)
|   |   |   |   |   |   |   |   |   |   Month = June: Adoption (0.0)
|   |   |   |   |   |   |   |   |   |   Month = September: Return_to_owner (5.0/1.0)
|   |   |   |   |   |   |   |   |   |   Month = August: Adoption (2.0)
|   |   |   |   |   |   |   |   |   DayPeriod = Morning
|   |   |   |   |   |   |   |   |   |   Season = Winter: Return_to_owner (2.0)
|   |   |   |   |   |   |   |   |   |   Season = Fall: Adoption (4.0/2.0)
|   |   |   |   |   |   |   |   |   |   Season = Summer: Return_to_owner (3.0/1.0)
|   |   |   |   |   |   |   |   |   |   Season = Spring: Return_to_owner (0.0)
|   |   |   |   |   |   |   |   |   DayPeriod = Evening: Adoption (1.0)
|   |   |   |   |   |   |   |   WeekDay = Fri
|   |   |   |   |   |   |   |   |   Sex = Male: Return_to_owner (28.0/11.0)
|   |   |   |   |   |   |   |   |   Sex = Female: Adoption (15.0/7.0)
|   |   |   |   |   |   |   |   |   Sex = Unknown: Return_to_owner (0.0)
|   |   |   |   |   |   |   |   WeekDay = Thu
|   |   |   |   |   |   |   |   |   IsMix = Yes
|   |   |   |   |   |   |   |   |   |   DaysuponOutcome <= 2190: Return_to_owner (21.0/7.0)
|   |   |   |   |   |   |   |   |   |   DaysuponOutcome > 2190: Transfer (10.0/3.0)
|   |   |   |   |   |   |   |   |   IsMix = No: Adoption (9.0/5.0)
|   |   |   |   |   |   |   |   WeekDay = Tue: Return_to_owner (40.0/16.0)
|   |   |   |   |   |   |   |   WeekDay = Mon
|   |   |   |   |   |   |   |   |   Sex = Male: Return_to_owner (28.0/13.0)
|   |   |   |   |   |   |   |   |   Sex = Female: Adoption (19.0/11.0)
|   |   |   |   |   |   |   |   |   Sex = Unknown: Return_to_owner (0.0)
|   |   |   |   |   |   |   IsHoliday = Yes
|   |   |   |   |   |   |   |   WeekDay = Wed: Return_to_owner (6.0/2.0)
|   |   |   |   |   |   |   |   WeekDay = Sun
|   |   |   |   |   |   |   |   |   IsSingleColor = No: Return_to_owner (4.0/1.0)
|   |   |   |   |   |   |   |   |   IsSingleColor = Yes: Adoption (2.0)
|   |   |   |   |   |   |   |   WeekDay = Sat: Adoption (8.0/1.0)
|   |   |   |   |   |   |   |   WeekDay = Fri: Adoption (5.0/2.0)
|   |   |   |   |   |   |   |   WeekDay = Thu
|   |   |   |   |   |   |   |   |   Sex = Male: Euthanasia (3.0/1.0)
|   |   |   |   |   |   |   |   |   Sex = Female: Adoption (3.0)
|   |   |   |   |   |   |   |   |   Sex = Unknown: Adoption (0.0)
|   |   |   |   |   |   |   |   WeekDay = Tue: Adoption (10.0/4.0)
|   |   |   |   |   |   |   |   WeekDay = Mon: Return_to_owner (6.0/3.0)
|   |   |   |   |   |   BreedGroup = Group 3: Return_to_owner (0.0)
|   |   |   |   |   |   BreedGroup = Sporting: Return_to_owner (575.0/288.0)
|   |   |   |   |   |   BreedGroup = Group 1: Return_to_owner (0.0)
|   |   |   |   |   |   BreedGroup = Terrier&Toy
|   |   |   |   |   |   |   WeekDay = Wed: Adoption (3.0/1.0)
|   |   |   |   |   |   |   WeekDay = Sun: Return_to_owner (4.0/1.0)
|   |   |   |   |   |   |   WeekDay = Sat: Return_to_owner (2.0)
|   |   |   |   |   |   |   WeekDay = Fri: Transfer (1.0)
|   |   |   |   |   |   |   WeekDay = Thu: Return_to_owner (0.0)
|   |   |   |   |   |   |   WeekDay = Tue: Return_to_owner (0.0)
|   |   |   |   |   |   |   WeekDay = Mon: Transfer (1.0)
|   |   |   |   |   DaysuponOutcome > 3650: Return_to_owner (376.0/131.0)
|   |   |   AnimalType = Cat
|   |   |   |   DaysuponOutcome <= 2920
|   |   |   |   |   WeekDay = Wed
|   |   |   |   |   |   DaysuponOutcome <= 1825
|   |   |   |   |   |   |   BreedGroup = Herding: Transfer (0.0)
|   |   |   |   |   |   |   BreedGroup = Group 4: Transfer (193.0/86.0)
|   |   |   |   |   |   |   BreedGroup = Pit Bull: Transfer (0.0)
|   |   |   |   |   |   |   BreedGroup = Non-Sporting: Transfer (0.0)
|   |   |   |   |   |   |   BreedGroup = Terrier: Transfer (0.0)
|   |   |   |   |   |   |   BreedGroup = Toy: Transfer (0.0)
|   |   |   |   |   |   |   BreedGroup = Working: Transfer (0.0)
|   |   |   |   |   |   |   BreedGroup = Group 2
|   |   |   |   |   |   |   |   DaysuponOutcome <= 365: Adoption (3.0)
|   |   |   |   |   |   |   |   DaysuponOutcome > 365
|   |   |   |   |   |   |   |   |   Sex = Male: Return_to_owner (2.0)
|   |   |   |   |   |   |   |   |   Sex = Female: Transfer (2.0)
|   |   |   |   |   |   |   |   |   Sex = Unknown: Return_to_owner (0.0)
|   |   |   |   |   |   |   BreedGroup = Unknown: Transfer (0.0)
|   |   |   |   |   |   |   BreedGroup = Hound: Transfer (0.0)
|   |   |   |   |   |   |   BreedGroup = Group 3
|   |   |   |   |   |   |   |   DaysuponOutcome <= 1095
|   |   |   |   |   |   |   |   |   IsSingleColor = No: Adoption (4.0)
|   |   |   |   |   |   |   |   |   IsSingleColor = Yes: Transfer (5.0/1.0)
|   |   |   |   |   |   |   |   DaysuponOutcome > 1095: Return_to_owner (3.0)
|   |   |   |   |   |   |   BreedGroup = Sporting: Transfer (0.0)
|   |   |   |   |   |   |   BreedGroup = Group 1: Adoption (1.0)
|   |   |   |   |   |   |   BreedGroup = Terrier&Toy: Transfer (0.0)
|   |   |   |   |   |   DaysuponOutcome > 1825
|   |   |   |   |   |   |   Month = February: Transfer (1.0)
|   |   |   |   |   |   |   Month = October
|   |   |   |   |   |   |   |   DaysuponOutcome <= 2555: Transfer (3.0/1.0)
|   |   |   |   |   |   |   |   DaysuponOutcome > 2555: Return_to_owner (3.0)
|   |   |   |   |   |   |   Month = January
|   |   |   |   |   |   |   |   DayPeriod = Afternoon: Return_to_owner (4.0/2.0)
|   |   |   |   |   |   |   |   DayPeriod = Morning: Adoption (3.0)
|   |   |   |   |   |   |   |   DayPeriod = Evening: Adoption (1.0)
|   |   |   |   |   |   |   Month = July: Return_to_owner (2.0/1.0)
|   |   |   |   |   |   |   Month = November
|   |   |   |   |   |   |   |   DaysuponOutcome <= 2555: Return_to_owner (7.0/3.0)
|   |   |   |   |   |   |   |   DaysuponOutcome > 2555: Adoption (2.0)
|   |   |   |   |   |   |   Month = April: Adoption (3.0/1.0)
|   |   |   |   |   |   |   Month = March
|   |   |   |   |   |   |   |   DaysuponOutcome <= 2555: Return_to_owner (3.0/1.0)
|   |   |   |   |   |   |   |   DaysuponOutcome > 2555: Transfer (3.0/1.0)
|   |   |   |   |   |   |   Month = May: Return_to_owner (1.0)
|   |   |   |   |   |   |   Month = December
|   |   |   |   |   |   |   |   Sex = Male: Transfer (2.0)
|   |   |   |   |   |   |   |   Sex = Female: Adoption (5.0/1.0)
|   |   |   |   |   |   |   |   Sex = Unknown: Adoption (0.0)
|   |   |   |   |   |   |   Month = June: Transfer (3.0/1.0)
|   |   |   |   |   |   |   Month = September: Return_to_owner (2.0/1.0)
|   |   |   |   |   |   |   Month = August: Return_to_owner (3.0/2.0)
|   |   |   |   |   WeekDay = Sun: Adoption (313.0/111.0)
|   |   |   |   |   WeekDay = Sat: Adoption (287.0/98.0)
|   |   |   |   |   WeekDay = Fri
|   |   |   |   |   |   BreedGroup = Herding: Adoption (0.0)
|   |   |   |   |   |   BreedGroup = Group 4
|   |   |   |   |   |   |   Month = February
|   |   |   |   |   |   |   |   DayPeriod = Afternoon: Adoption (10.0/2.0)
|   |   |   |   |   |   |   |   DayPeriod = Morning
|   |   |   |   |   |   |   |   |   IsSingleColor = No: Transfer (5.0/1.0)
|   |   |   |   |   |   |   |   |   IsSingleColor = Yes: Return_to_owner (2.0/1.0)
|   |   |   |   |   |   |   |   DayPeriod = Evening: Return_to_owner (1.0)
|   |   |   |   |   |   |   Month = October
|   |   |   |   |   |   |   |   Sex = Male
|   |   |   |   |   |   |   |   |   DaysuponOutcome <= 730: Adoption (2.0/1.0)
|   |   |   |   |   |   |   |   |   DaysuponOutcome > 730: Return_to_owner (6.0/2.0)
|   |   |   |   |   |   |   |   Sex = Female
|   |   |   |   |   |   |   |   |   IsSingleColor = No: Adoption (4.0)
|   |   |   |   |   |   |   |   |   IsSingleColor = Yes
|   |   |   |   |   |   |   |   |   |   DayPeriod = Afternoon: Transfer (4.0/1.0)
|   |   |   |   |   |   |   |   |   |   DayPeriod = Morning: Euthanasia (2.0/1.0)
|   |   |   |   |   |   |   |   |   |   DayPeriod = Evening: Transfer (0.0)
|   |   |   |   |   |   |   |   Sex = Unknown: Adoption (0.0)
|   |   |   |   |   |   |   Month = January
|   |   |   |   |   |   |   |   IsSingleColor = No: Transfer (6.0/2.0)
|   |   |   |   |   |   |   |   IsSingleColor = Yes
|   |   |   |   |   |   |   |   |   DayPeriod = Afternoon
|   |   |   |   |   |   |   |   |   |   DaysuponOutcome <= 1095: Transfer (6.0/2.0)
|   |   |   |   |   |   |   |   |   |   DaysuponOutcome > 1095
|   |   |   |   |   |   |   |   |   |   |   DaysuponOutcome <= 2190: Return_to_owner (5.0)
|   |   |   |   |   |   |   |   |   |   |   DaysuponOutcome > 2190: Transfer (2.0)
|   |   |   |   |   |   |   |   |   DayPeriod = Morning
|   |   |   |   |   |   |   |   |   |   DaysuponOutcome <= 365: Return_to_owner (2.0/1.0)
|   |   |   |   |   |   |   |   |   |   DaysuponOutcome > 365: Adoption (2.0)
|   |   |   |   |   |   |   |   |   DayPeriod = Evening: Return_to_owner (0.0)
|   |   |   |   |   |   |   Month = July
|   |   |   |   |   |   |   |   DaysuponOutcome <= 730: Return_to_owner (3.0/2.0)
|   |   |   |   |   |   |   |   DaysuponOutcome > 730
|   |   |   |   |   |   |   |   |   DaysuponOutcome <= 1460: Adoption (4.0/1.0)
|   |   |   |   |   |   |   |   |   DaysuponOutcome > 1460: Transfer (4.0/1.0)
|   |   |   |   |   |   |   Month = November
|   |   |   |   |   |   |   |   DaysuponOutcome <= 365
|   |   |   |   |   |   |   |   |   IsSingleColor = No: Transfer (4.0/1.0)
|   |   |   |   |   |   |   |   |   IsSingleColor = Yes: Adoption (2.0)
|   |   |   |   |   |   |   |   DaysuponOutcome > 365
|   |   |   |   |   |   |   |   |   DaysuponOutcome <= 730: Return_to_owner (5.0/1.0)
|   |   |   |   |   |   |   |   |   DaysuponOutcome > 730: Transfer (10.0/3.0)
|   |   |   |   |   |   |   Month = April: Adoption (14.0/5.0)
|   |   |   |   |   |   |   Month = March
|   |   |   |   |   |   |   |   DaysuponOutcome <= 1095: Adoption (10.0/3.0)
|   |   |   |   |   |   |   |   DaysuponOutcome > 1095: Transfer (5.0/1.0)
|   |   |   |   |   |   |   Month = May
|   |   |   |   |   |   |   |   IsHoliday = No
|   |   |   |   |   |   |   |   |   IsSingleColor = No: Adoption (4.0/1.0)
|   |   |   |   |   |   |   |   |   IsSingleColor = Yes: Transfer (4.0/1.0)
|   |   |   |   |   |   |   |   IsHoliday = Yes: Adoption (5.0/1.0)
|   |   |   |   |   |   |   Month = December
|   |   |   |   |   |   |   |   IsSingleColor = No
|   |   |   |   |   |   |   |   |   DaysuponOutcome <= 1095: Transfer (7.0/1.0)
|   |   |   |   |   |   |   |   |   DaysuponOutcome > 1095: Euthanasia (4.0/2.0)
|   |   |   |   |   |   |   |   IsSingleColor = Yes
|   |   |   |   |   |   |   |   |   Sex = Male: Transfer (9.0/2.0)
|   |   |   |   |   |   |   |   |   Sex = Female: Adoption (13.0/6.0)
|   |   |   |   |   |   |   |   |   Sex = Unknown: Transfer (0.0)
|   |   |   |   |   |   |   Month = June: Adoption (2.0/1.0)
|   |   |   |   |   |   |   Month = September
|   |   |   |   |   |   |   |   DayPeriod = Afternoon
|   |   |   |   |   |   |   |   |   DaysuponOutcome <= 365: Return_to_owner (3.0/1.0)
|   |   |   |   |   |   |   |   |   DaysuponOutcome > 365: Transfer (7.0/2.0)
|   |   |   |   |   |   |   |   DayPeriod = Morning: Adoption (3.0/1.0)
|   |   |   |   |   |   |   |   DayPeriod = Evening: Transfer (0.0)
|   |   |   |   |   |   |   Month = August
|   |   |   |   |   |   |   |   DaysuponOutcome <= 2190: Adoption (10.0/3.0)
|   |   |   |   |   |   |   |   DaysuponOutcome > 2190: Return_to_owner (2.0/1.0)
|   |   |   |   |   |   BreedGroup = Pit Bull: Adoption (0.0)
|   |   |   |   |   |   BreedGroup = Non-Sporting: Adoption (0.0)
|   |   |   |   |   |   BreedGroup = Terrier: Adoption (0.0)
|   |   |   |   |   |   BreedGroup = Toy: Adoption (0.0)
|   |   |   |   |   |   BreedGroup = Working: Adoption (0.0)
|   |   |   |   |   |   BreedGroup = Group 2: Return_to_owner (13.0/8.0)
|   |   |   |   |   |   BreedGroup = Unknown: Adoption (1.0)
|   |   |   |   |   |   BreedGroup = Hound: Adoption (0.0)
|   |   |   |   |   |   BreedGroup = Group 3: Adoption (7.0/2.0)
|   |   |   |   |   |   BreedGroup = Sporting: Adoption (0.0)
|   |   |   |   |   |   BreedGroup = Group 1
|   |   |   |   |   |   |   Sex = Male: Transfer (5.0/1.0)
|   |   |   |   |   |   |   Sex = Female
|   |   |   |   |   |   |   |   DaysuponOutcome <= 1460: Transfer (2.0)
|   |   |   |   |   |   |   |   DaysuponOutcome > 1460: Adoption (2.0)
|   |   |   |   |   |   |   Sex = Unknown: Transfer (0.0)
|   |   |   |   |   |   BreedGroup = Terrier&Toy: Adoption (0.0)
|   |   |   |   |   WeekDay = Thu
|   |   |   |   |   |   IsHoliday = No
|   |   |   |   |   |   |   Month = February
|   |   |   |   |   |   |   |   DayPeriod = Afternoon
|   |   |   |   |   |   |   |   |   IsSingleColor = No: Adoption (6.0/2.0)
|   |   |   |   |   |   |   |   |   IsSingleColor = Yes: Transfer (10.0/4.0)
|   |   |   |   |   |   |   |   DayPeriod = Morning: Adoption (5.0/2.0)
|   |   |   |   |   |   |   |   DayPeriod = Evening: Adoption (0.0)
|   |   |   |   |   |   |   Month = October: Transfer (23.0/8.0)
|   |   |   |   |   |   |   Month = January
|   |   |   |   |   |   |   |   IsSingleColor = No: Return_to_owner (6.0/3.0)
|   |   |   |   |   |   |   |   IsSingleColor = Yes: Adoption (19.0/11.0)
|   |   |   |   |   |   |   Month = July
|   |   |   |   |   |   |   |   DayPeriod = Afternoon
|   |   |   |   |   |   |   |   |   Sex = Male: Adoption (4.0/1.0)
|   |   |   |   |   |   |   |   |   Sex = Female: Return_to_owner (3.0/1.0)
|   |   |   |   |   |   |   |   |   Sex = Unknown: Adoption (0.0)
|   |   |   |   |   |   |   |   DayPeriod = Morning
|   |   |   |   |   |   |   |   |   DaysuponOutcome <= 1460: Transfer (4.0/1.0)
|   |   |   |   |   |   |   |   |   DaysuponOutcome > 1460: Adoption (3.0/1.0)
|   |   |   |   |   |   |   |   DayPeriod = Evening: Adoption (0.0)
|   |   |   |   |   |   |   Month = November: Return_to_owner (6.0/2.0)
|   |   |   |   |   |   |   Month = April
|   |   |   |   |   |   |   |   DaysuponOutcome <= 365: Return_to_owner (3.0/1.0)
|   |   |   |   |   |   |   |   DaysuponOutcome > 365: Transfer (8.0/4.0)
|   |   |   |   |   |   |   Month = March: Return_to_owner (3.0/2.0)
|   |   |   |   |   |   |   Month = May: Transfer (8.0/4.0)
|   |   |   |   |   |   |   Month = December: Transfer (24.0/7.0)
|   |   |   |   |   |   |   Month = June
|   |   |   |   |   |   |   |   Sex = Male
|   |   |   |   |   |   |   |   |   DaysuponOutcome <= 1460: Transfer (6.0/1.0)
|   |   |   |   |   |   |   |   |   DaysuponOutcome > 1460: Euthanasia (2.0/1.0)
|   |   |   |   |   |   |   |   Sex = Female: Adoption (10.0/4.0)
|   |   |   |   |   |   |   |   Sex = Unknown: Adoption (0.0)
|   |   |   |   |   |   |   Month = September: Transfer (18.0/7.0)
|   |   |   |   |   |   |   Month = August
|   |   |   |   |   |   |   |   IsSingleColor = No
|   |   |   |   |   |   |   |   |   DaysuponOutcome <= 1460: Adoption (3.0/1.0)
|   |   |   |   |   |   |   |   |   DaysuponOutcome > 1460: Return_to_owner (4.0/2.0)
|   |   |   |   |   |   |   |   IsSingleColor = Yes
|   |   |   |   |   |   |   |   |   DaysuponOutcome <= 365: Adoption (5.0/2.0)
|   |   |   |   |   |   |   |   |   DaysuponOutcome > 365
|   |   |   |   |   |   |   |   |   |   DaysuponOutcome <= 730: Return_to_owner (4.0/1.0)
|   |   |   |   |   |   |   |   |   |   DaysuponOutcome > 730: Transfer (3.0)
|   |   |   |   |   |   IsHoliday = Yes
|   |   |   |   |   |   |   BreedGroup = Herding: Adoption (0.0)
|   |   |   |   |   |   |   BreedGroup = Group 4: Adoption (24.0/8.0)
|   |   |   |   |   |   |   BreedGroup = Pit Bull: Adoption (0.0)
|   |   |   |   |   |   |   BreedGroup = Non-Sporting: Adoption (0.0)
|   |   |   |   |   |   |   BreedGroup = Terrier: Adoption (0.0)
|   |   |   |   |   |   |   BreedGroup = Toy: Adoption (0.0)
|   |   |   |   |   |   |   BreedGroup = Working: Adoption (0.0)
|   |   |   |   |   |   |   BreedGroup = Group 2: Transfer (3.0/1.0)
|   |   |   |   |   |   |   BreedGroup = Unknown: Adoption (0.0)
|   |   |   |   |   |   |   BreedGroup = Hound: Adoption (0.0)
|   |   |   |   |   |   |   BreedGroup = Group 3: Adoption (0.0)
|   |   |   |   |   |   |   BreedGroup = Sporting: Adoption (0.0)
|   |   |   |   |   |   |   BreedGroup = Group 1: Adoption (0.0)
|   |   |   |   |   |   |   BreedGroup = Terrier&Toy: Adoption (0.0)
|   |   |   |   |   WeekDay = Tue
|   |   |   |   |   |   BreedGroup = Herding: Transfer (0.0)
|   |   |   |   |   |   BreedGroup = Group 4: Transfer (283.0/127.0)
|   |   |   |   |   |   BreedGroup = Pit Bull: Transfer (0.0)
|   |   |   |   |   |   BreedGroup = Non-Sporting: Transfer (0.0)
|   |   |   |   |   |   BreedGroup = Terrier: Transfer (0.0)
|   |   |   |   |   |   BreedGroup = Toy: Transfer (0.0)
|   |   |   |   |   |   BreedGroup = Working: Transfer (0.0)
|   |   |   |   |   |   BreedGroup = Group 2: Transfer (13.0/5.0)
|   |   |   |   |   |   BreedGroup = Unknown: Transfer (0.0)
|   |   |   |   |   |   BreedGroup = Hound: Transfer (0.0)
|   |   |   |   |   |   BreedGroup = Group 3
|   |   |   |   |   |   |   IsSingleColor = No: Transfer (2.0)
|   |   |   |   |   |   |   IsSingleColor = Yes: Adoption (7.0/2.0)
|   |   |   |   |   |   BreedGroup = Sporting: Transfer (0.0)
|   |   |   |   |   |   BreedGroup = Group 1: Adoption (4.0/1.0)
|   |   |   |   |   |   BreedGroup = Terrier&Toy: Transfer (0.0)
|   |   |   |   |   WeekDay = Mon
|   |   |   |   |   |   BreedGroup = Herding: Transfer (0.0)
|   |   |   |   |   |   BreedGroup = Group 4
|   |   |   |   |   |   |   Month = February
|   |   |   |   |   |   |   |   Sex = Male: Adoption (10.0/4.0)
|   |   |   |   |   |   |   |   Sex = Female: Transfer (8.0/3.0)
|   |   |   |   |   |   |   |   Sex = Unknown: Adoption (0.0)
|   |   |   |   |   |   |   Month = October
|   |   |   |   |   |   |   |   Sex = Male: Adoption (6.0/2.0)
|   |   |   |   |   |   |   |   Sex = Female: Transfer (11.0/6.0)
|   |   |   |   |   |   |   |   Sex = Unknown: Adoption (0.0)
|   |   |   |   |   |   |   Month = January: Transfer (19.0/10.0)
|   |   |   |   |   |   |   Month = July
|   |   |   |   |   |   |   |   DayPeriod = Afternoon
|   |   |   |   |   |   |   |   |   IsSingleColor = No: Adoption (2.0)
|   |   |   |   |   |   |   |   |   IsSingleColor = Yes: Transfer (6.0/1.0)
|   |   |   |   |   |   |   |   DayPeriod = Morning
|   |   |   |   |   |   |   |   |   DaysuponOutcome <= 365: Transfer (5.0/1.0)
|   |   |   |   |   |   |   |   |   DaysuponOutcome > 365: Adoption (2.0)
|   |   |   |   |   |   |   |   DayPeriod = Evening: Return_to_owner (1.0)
|   |   |   |   |   |   |   Month = November
|   |   |   |   |   |   |   |   DayPeriod = Afternoon
|   |   |   |   |   |   |   |   |   DaysuponOutcome <= 2190: Transfer (15.0/6.0)
|   |   |   |   |   |   |   |   |   DaysuponOutcome > 2190: Adoption (2.0)
|   |   |   |   |   |   |   |   DayPeriod = Morning: Return_to_owner (6.0/2.0)
|   |   |   |   |   |   |   |   DayPeriod = Evening: Adoption (1.0)
|   |   |   |   |   |   |   Month = April
|   |   |   |   |   |   |   |   DaysuponOutcome <= 1825: Transfer (13.0/5.0)
|   |   |   |   |   |   |   |   DaysuponOutcome > 1825: Return_to_owner (4.0/2.0)
|   |   |   |   |   |   |   Month = March
|   |   |   |   |   |   |   |   Sex = Male: Transfer (12.0/4.0)
|   |   |   |   |   |   |   |   Sex = Female
|   |   |   |   |   |   |   |   |   DaysuponOutcome <= 365: Return_to_owner (3.0/1.0)
|   |   |   |   |   |   |   |   |   DaysuponOutcome > 365: Adoption (3.0/1.0)
|   |   |   |   |   |   |   |   Sex = Unknown: Transfer (0.0)
|   |   |   |   |   |   |   Month = May
|   |   |   |   |   |   |   |   IsSingleColor = No: Transfer (14.0/5.0)
|   |   |   |   |   |   |   |   IsSingleColor = Yes: Adoption (12.0/4.0)
|   |   |   |   |   |   |   Month = December
|   |   |   |   |   |   |   |   DayPeriod = Afternoon: Transfer (26.0/10.0)
|   |   |   |   |   |   |   |   DayPeriod = Morning: Adoption (6.0/2.0)
|   |   |   |   |   |   |   |   DayPeriod = Evening: Transfer (4.0/1.0)
|   |   |   |   |   |   |   Month = June
|   |   |   |   |   |   |   |   Sex = Male: Return_to_owner (5.0/2.0)
|   |   |   |   |   |   |   |   Sex = Female: Transfer (9.0/3.0)
|   |   |   |   |   |   |   |   Sex = Unknown: Transfer (0.0)
|   |   |   |   |   |   |   Month = September
|   |   |   |   |   |   |   |   DayPeriod = Afternoon
|   |   |   |   |   |   |   |   |   Sex = Male: Adoption (2.0)
|   |   |   |   |   |   |   |   |   Sex = Female
|   |   |   |   |   |   |   |   |   |   IsSingleColor = No: Return_to_owner (3.0/1.0)
|   |   |   |   |   |   |   |   |   |   IsSingleColor = Yes: Adoption (5.0/2.0)
|   |   |   |   |   |   |   |   |   Sex = Unknown: Adoption (0.0)
|   |   |   |   |   |   |   |   DayPeriod = Morning: Return_to_owner (2.0)
|   |   |   |   |   |   |   |   DayPeriod = Evening: Adoption (1.0)
|   |   |   |   |   |   |   Month = August
|   |   |   |   |   |   |   |   Sex = Male: Transfer (9.0/4.0)
|   |   |   |   |   |   |   |   Sex = Female
|   |   |   |   |   |   |   |   |   IsHoliday = No: Adoption (7.0)
|   |   |   |   |   |   |   |   |   IsHoliday = Yes: Return_to_owner (3.0/1.0)
|   |   |   |   |   |   |   |   Sex = Unknown: Adoption (0.0)
|   |   |   |   |   |   BreedGroup = Pit Bull: Transfer (0.0)
|   |   |   |   |   |   BreedGroup = Non-Sporting: Transfer (0.0)
|   |   |   |   |   |   BreedGroup = Terrier: Transfer (0.0)
|   |   |   |   |   |   BreedGroup = Toy: Transfer (0.0)
|   |   |   |   |   |   BreedGroup = Working: Transfer (0.0)
|   |   |   |   |   |   BreedGroup = Group 2: Adoption (12.0/6.0)
|   |   |   |   |   |   BreedGroup = Unknown: Transfer (0.0)
|   |   |   |   |   |   BreedGroup = Hound: Transfer (0.0)
|   |   |   |   |   |   BreedGroup = Group 3
|   |   |   |   |   |   |   Sex = Male: Return_to_owner (3.0)
|   |   |   |   |   |   |   Sex = Female
|   |   |   |   |   |   |   |   IsSingleColor = No: Return_to_owner (2.0)
|   |   |   |   |   |   |   |   IsSingleColor = Yes: Transfer (5.0/1.0)
|   |   |   |   |   |   |   Sex = Unknown: Return_to_owner (0.0)
|   |   |   |   |   |   BreedGroup = Sporting: Transfer (0.0)
|   |   |   |   |   |   BreedGroup = Group 1: Adoption (3.0/1.0)
|   |   |   |   |   |   BreedGroup = Terrier&Toy: Transfer (0.0)
|   |   |   |   DaysuponOutcome > 2920
|   |   |   |   |   BreedGroup = Herding: Adoption (0.0)
|   |   |   |   |   BreedGroup = Group 4
|   |   |   |   |   |   WeekDay = Wed
|   |   |   |   |   |   |   Month = February: Return_to_owner (1.0)
|   |   |   |   |   |   |   Month = October
|   |   |   |   |   |   |   |   DaysuponOutcome <= 3650
|   |   |   |   |   |   |   |   |   DaysuponOutcome <= 3285: Transfer (2.0)
|   |   |   |   |   |   |   |   |   DaysuponOutcome > 3285: Adoption (2.0)
|   |   |   |   |   |   |   |   DaysuponOutcome > 3650
|   |   |   |   |   |   |   |   |   DaysuponOutcome <= 4745: Return_to_owner (2.0)
|   |   |   |   |   |   |   |   |   DaysuponOutcome > 4745: Transfer (2.0)
|   |   |   |   |   |   |   Month = January: Adoption (5.0/1.0)
|   |   |   |   |   |   |   Month = July: Return_to_owner (2.0/1.0)
|   |   |   |   |   |   |   Month = November: Euthanasia (2.0/1.0)
|   |   |   |   |   |   |   Month = April: Return_to_owner (1.0)
|   |   |   |   |   |   |   Month = March: Adoption (3.0/1.0)
|   |   |   |   |   |   |   Month = May: Adoption (1.0)
|   |   |   |   |   |   |   Month = December: Return_to_owner (3.0/2.0)
|   |   |   |   |   |   |   Month = June: Transfer (1.0)
|   |   |   |   |   |   |   Month = September: Adoption (2.0)
|   |   |   |   |   |   |   Month = August: Euthanasia (2.0)
|   |   |   |   |   |   WeekDay = Sun: Adoption (41.0/9.0)
|   |   |   |   |   |   WeekDay = Sat: Adoption (42.0/18.0)
|   |   |   |   |   |   WeekDay = Fri
|   |   |   |   |   |   |   DayPeriod = Afternoon: Adoption (29.0/12.0)
|   |   |   |   |   |   |   DayPeriod = Morning: Transfer (14.0/8.0)
|   |   |   |   |   |   |   DayPeriod = Evening: Adoption (1.0)
|   |   |   |   |   |   WeekDay = Thu
|   |   |   |   |   |   |   DayPeriod = Afternoon: Transfer (17.0/9.0)
|   |   |   |   |   |   |   DayPeriod = Morning
|   |   |   |   |   |   |   |   DaysuponOutcome <= 4015: Return_to_owner (3.0/1.0)
|   |   |   |   |   |   |   |   DaysuponOutcome > 4015: Adoption (2.0)
|   |   |   |   |   |   |   DayPeriod = Evening: Return_to_owner (2.0/1.0)
|   |   |   |   |   |   WeekDay = Tue
|   |   |   |   |   |   |   DayPeriod = Afternoon
|   |   |   |   |   |   |   |   Month = February: Euthanasia (1.0)
|   |   |   |   |   |   |   |   Month = October: Euthanasia (1.0)
|   |   |   |   |   |   |   |   Month = January: Transfer (0.0)
|   |   |   |   |   |   |   |   Month = July: Transfer (4.0)
|   |   |   |   |   |   |   |   Month = November: Transfer (0.0)
|   |   |   |   |   |   |   |   Month = April: Transfer (2.0)
|   |   |   |   |   |   |   |   Month = March: Return_to_owner (3.0/1.0)
|   |   |   |   |   |   |   |   Month = May: Adoption (3.0/1.0)
|   |   |   |   |   |   |   |   Month = December: Transfer (0.0)
|   |   |   |   |   |   |   |   Month = June: Return_to_owner (2.0/1.0)
|   |   |   |   |   |   |   |   Month = September: Return_to_owner (1.0)
|   |   |   |   |   |   |   |   Month = August: Transfer (2.0)
|   |   |   |   |   |   |   DayPeriod = Morning: Adoption (17.0/9.0)
|   |   |   |   |   |   |   DayPeriod = Evening: Adoption (0.0)
|   |   |   |   |   |   WeekDay = Mon
|   |   |   |   |   |   |   Month = February: Euthanasia (3.0/2.0)
|   |   |   |   |   |   |   Month = October: Euthanasia (2.0/1.0)
|   |   |   |   |   |   |   Month = January: Adoption (5.0/1.0)
|   |   |   |   |   |   |   Month = July: Euthanasia (4.0/1.0)
|   |   |   |   |   |   |   Month = November: Transfer (3.0/1.0)
|   |   |   |   |   |   |   Month = April
|   |   |   |   |   |   |   |   DaysuponOutcome <= 3285: Adoption (2.0/1.0)
|   |   |   |   |   |   |   |   DaysuponOutcome > 3285: Return_to_owner (2.0)
|   |   |   |   |   |   |   Month = March: Adoption (0.0)
|   |   |   |   |   |   |   Month = May: Adoption (3.0/1.0)
|   |   |   |   |   |   |   Month = December: Adoption (5.0/2.0)
|   |   |   |   |   |   |   Month = June: Return_to_owner (2.0/1.0)
|   |   |   |   |   |   |   Month = September: Adoption (0.0)
|   |   |   |   |   |   |   Month = August: Return_to_owner (3.0/2.0)
|   |   |   |   |   BreedGroup = Pit Bull: Adoption (0.0)
|   |   |   |   |   BreedGroup = Non-Sporting: Adoption (0.0)
|   |   |   |   |   BreedGroup = Terrier: Adoption (0.0)
|   |   |   |   |   BreedGroup = Toy: Adoption (0.0)
|   |   |   |   |   BreedGroup = Working: Adoption (0.0)
|   |   |   |   |   BreedGroup = Group 2: Adoption (20.0/8.0)
|   |   |   |   |   BreedGroup = Unknown: Adoption (0.0)
|   |   |   |   |   BreedGroup = Hound: Adoption (0.0)
|   |   |   |   |   BreedGroup = Group 3: Adoption (16.0/5.0)
|   |   |   |   |   BreedGroup = Sporting: Adoption (0.0)
|   |   |   |   |   BreedGroup = Group 1
|   |   |   |   |   |   Sex = Male
|   |   |   |   |   |   |   DaysuponOutcome <= 4380: Transfer (4.0/1.0)
|   |   |   |   |   |   |   DaysuponOutcome > 4380: Return_to_owner (2.0)
|   |   |   |   |   |   Sex = Female: Adoption (9.0)
|   |   |   |   |   |   Sex = Unknown: Adoption (0.0)
|   |   |   |   |   BreedGroup = Terrier&Toy: Adoption (0.0)
|   |   HasName = No
|   |   |   DaysuponOutcome <= 2555
|   |   |   |   AnimalType = Dog
|   |   |   |   |   BreedGroup = Herding
|   |   |   |   |   |   DaysuponOutcome <= 1460: Adoption (65.0/19.0)
|   |   |   |   |   |   DaysuponOutcome > 1460
|   |   |   |   |   |   |   Sex = Male: Euthanasia (2.0)
|   |   |   |   |   |   |   Sex = Female: Return_to_owner (2.0/1.0)
|   |   |   |   |   |   |   Sex = Unknown: Euthanasia (0.0)
|   |   |   |   |   BreedGroup = Group 4: Adoption (0.0)
|   |   |   |   |   BreedGroup = Pit Bull: Adoption (24.0/10.0)
|   |   |   |   |   BreedGroup = Non-Sporting: Transfer (37.0/15.0)
|   |   |   |   |   BreedGroup = Terrier
|   |   |   |   |   |   IsMix = Yes: Adoption (94.0/29.0)
|   |   |   |   |   |   IsMix = No: Transfer (13.0/5.0)
|   |   |   |   |   BreedGroup = Toy
|   |   |   |   |   |   DayPeriod = Afternoon: Adoption (214.0/78.0)
|   |   |   |   |   |   DayPeriod = Morning: Transfer (52.0/19.0)
|   |   |   |   |   |   DayPeriod = Evening: Adoption (23.0/7.0)
|   |   |   |   |   BreedGroup = Working
|   |   |   |   |   |   IsMix = Yes: Adoption (36.0/14.0)
|   |   |   |   |   |   IsMix = No: Transfer (8.0/2.0)
|   |   |   |   |   BreedGroup = Group 2: Adoption (0.0)
|   |   |   |   |   BreedGroup = Unknown: Adoption (12.0/4.0)
|   |   |   |   |   BreedGroup = Hound
|   |   |   |   |   |   DaysuponOutcome <= 1095: Adoption (58.0/14.0)
|   |   |   |   |   |   DaysuponOutcome > 1095
|   |   |   |   |   |   |   IsPopularBreed = No: Transfer (17.0/5.0)
|   |   |   |   |   |   |   IsPopularBreed = Yes
|   |   |   |   |   |   |   |   Sex = Male: Transfer (2.0)
|   |   |   |   |   |   |   |   Sex = Female: Return_to_owner (4.0/2.0)
|   |   |   |   |   |   |   |   Sex = Unknown: Return_to_owner (0.0)
|   |   |   |   |   BreedGroup = Group 3: Adoption (0.0)
|   |   |   |   |   BreedGroup = Sporting
|   |   |   |   |   |   IsSingleColor = No: Adoption (28.0/7.0)
|   |   |   |   |   |   IsSingleColor = Yes: Transfer (34.0/16.0)
|   |   |   |   |   BreedGroup = Group 1: Adoption (0.0)
|   |   |   |   |   BreedGroup = Terrier&Toy: Adoption (1.0)
|   |   |   |   AnimalType = Cat
|   |   |   |   |   DayPeriod = Afternoon
|   |   |   |   |   |   Season = Winter: Transfer (58.0/19.0)
|   |   |   |   |   |   Season = Fall: Transfer (41.0/16.0)
|   |   |   |   |   |   Season = Summer
|   |   |   |   |   |   |   DaysuponOutcome <= 730
|   |   |   |   |   |   |   |   DaysuponOutcome <= 365: Adoption (7.0/1.0)
|   |   |   |   |   |   |   |   DaysuponOutcome > 365: Transfer (13.0/7.0)
|   |   |   |   |   |   |   DaysuponOutcome > 730
|   |   |   |   |   |   |   |   Month = February: Euthanasia (0.0)
|   |   |   |   |   |   |   |   Month = October: Euthanasia (0.0)
|   |   |   |   |   |   |   |   Month = January: Euthanasia (0.0)
|   |   |   |   |   |   |   |   Month = July: Adoption (2.0)
|   |   |   |   |   |   |   |   Month = November: Euthanasia (0.0)
|   |   |   |   |   |   |   |   Month = April: Euthanasia (0.0)
|   |   |   |   |   |   |   |   Month = March: Euthanasia (0.0)
|   |   |   |   |   |   |   |   Month = May: Euthanasia (0.0)
|   |   |   |   |   |   |   |   Month = December: Euthanasia (0.0)
|   |   |   |   |   |   |   |   Month = June: Euthanasia (0.0)
|   |   |   |   |   |   |   |   Month = September: Euthanasia (4.0/1.0)
|   |   |   |   |   |   |   |   Month = August: Euthanasia (1.0)
|   |   |   |   |   |   Season = Spring
|   |   |   |   |   |   |   Sex = Male
|   |   |   |   |   |   |   |   Month = February: Adoption (0.0)
|   |   |   |   |   |   |   |   Month = October: Adoption (0.0)
|   |   |   |   |   |   |   |   Month = January: Adoption (0.0)
|   |   |   |   |   |   |   |   Month = July: Adoption (0.0)
|   |   |   |   |   |   |   |   Month = November: Adoption (0.0)
|   |   |   |   |   |   |   |   Month = April
|   |   |   |   |   |   |   |   |   DaysuponOutcome <= 365: Adoption (4.0/1.0)
|   |   |   |   |   |   |   |   |   DaysuponOutcome > 365: Euthanasia (2.0)
|   |   |   |   |   |   |   |   Month = March: Adoption (0.0)
|   |   |   |   |   |   |   |   Month = May
|   |   |   |   |   |   |   |   |   DaysuponOutcome <= 1095: Euthanasia (3.0/1.0)
|   |   |   |   |   |   |   |   |   DaysuponOutcome > 1095: Adoption (2.0)
|   |   |   |   |   |   |   |   Month = December: Adoption (0.0)
|   |   |   |   |   |   |   |   Month = June: Transfer (4.0/1.0)
|   |   |   |   |   |   |   |   Month = September: Adoption (0.0)
|   |   |   |   |   |   |   |   Month = August: Adoption (0.0)
|   |   |   |   |   |   |   Sex = Female: Transfer (18.0/11.0)
|   |   |   |   |   |   |   Sex = Unknown: Transfer (0.0)
|   |   |   |   |   DayPeriod = Morning: Transfer (131.0/39.0)
|   |   |   |   |   DayPeriod = Evening: Transfer (44.0/8.0)
|   |   |   DaysuponOutcome > 2555
|   |   |   |   AnimalType = Dog
|   |   |   |   |   WeekDay = Wed: Transfer (13.0/7.0)
|   |   |   |   |   WeekDay = Sun
|   |   |   |   |   |   DayPeriod = Afternoon: Euthanasia (8.0/5.0)
|   |   |   |   |   |   DayPeriod = Morning: Transfer (3.0)
|   |   |   |   |   |   DayPeriod = Evening: Transfer (0.0)
|   |   |   |   |   WeekDay = Sat: Transfer (5.0/1.0)
|   |   |   |   |   WeekDay = Fri: Transfer (8.0/2.0)
|   |   |   |   |   WeekDay = Thu
|   |   |   |   |   |   Sex = Male: Euthanasia (5.0/1.0)
|   |   |   |   |   |   Sex = Female: Transfer (2.0)
|   |   |   |   |   |   Sex = Unknown: Euthanasia (0.0)
|   |   |   |   |   WeekDay = Tue: Euthanasia (9.0/2.0)
|   |   |   |   |   WeekDay = Mon
|   |   |   |   |   |   DaysuponOutcome <= 3285: Return_to_owner (2.0)
|   |   |   |   |   |   DaysuponOutcome > 3285: Euthanasia (4.0/2.0)
|   |   |   |   AnimalType = Cat: Euthanasia (61.0/16.0)
Castrated = No
|   HasName = Yes
|   |   DaysuponOutcome <= 150
|   |   |   AnimalType = Dog: Transfer (404.0/122.0)
|   |   |   AnimalType = Cat
|   |   |   |   DaysuponOutcome <= 35: Transfer (508.0/135.0)
|   |   |   |   DaysuponOutcome > 35
|   |   |   |   |   WeekDay = Wed
|   |   |   |   |   |   Sex = Male: Transfer (25.0/6.0)
|   |   |   |   |   |   Sex = Female: Adoption (16.0/5.0)
|   |   |   |   |   |   Sex = Unknown: Transfer (0.0)
|   |   |   |   |   WeekDay = Sun: Adoption (44.0/12.0)
|   |   |   |   |   WeekDay = Sat: Adoption (48.0/17.0)
|   |   |   |   |   WeekDay = Fri
|   |   |   |   |   |   Sex = Male: Transfer (25.0/2.0)
|   |   |   |   |   |   Sex = Female: Adoption (28.0/15.0)
|   |   |   |   |   |   Sex = Unknown: Transfer (0.0)
|   |   |   |   |   WeekDay = Thu: Transfer (51.0/21.0)
|   |   |   |   |   WeekDay = Tue
|   |   |   |   |   |   Month = February: Transfer (1.0)
|   |   |   |   |   |   Month = October: Adoption (3.0/1.0)
|   |   |   |   |   |   Month = January: Transfer (0.0)
|   |   |   |   |   |   Month = July: Transfer (11.0/2.0)
|   |   |   |   |   |   Month = November: Euthanasia (5.0/3.0)
|   |   |   |   |   |   Month = April: Transfer (1.0)
|   |   |   |   |   |   Month = March: Transfer (1.0)
|   |   |   |   |   |   Month = May: Adoption (6.0)
|   |   |   |   |   |   Month = December: Transfer (14.0/4.0)
|   |   |   |   |   |   Month = June: Adoption (4.0/2.0)
|   |   |   |   |   |   Month = September: Adoption (2.0)
|   |   |   |   |   |   Month = August: Euthanasia (3.0/2.0)
|   |   |   |   |   WeekDay = Mon: Transfer (61.0/24.0)
|   |   DaysuponOutcome > 150
|   |   |   AnimalType = Dog
|   |   |   |   DaysuponOutcome <= 3650
|   |   |   |   |   BreedGroup = Herding
|   |   |   |   |   |   Month = February
|   |   |   |   |   |   |   WeekDay = Wed: Euthanasia (2.0/1.0)
|   |   |   |   |   |   |   WeekDay = Sun: Transfer (2.0/1.0)
|   |   |   |   |   |   |   WeekDay = Sat: Return_to_owner (2.0)
|   |   |   |   |   |   |   WeekDay = Fri
|   |   |   |   |   |   |   |   Sex = Male: Return_to_owner (2.0)
|   |   |   |   |   |   |   |   Sex = Female: Transfer (2.0)
|   |   |   |   |   |   |   |   Sex = Unknown: Return_to_owner (0.0)
|   |   |   |   |   |   |   WeekDay = Thu: Euthanasia (2.0)
|   |   |   |   |   |   |   WeekDay = Tue: Return_to_owner (1.0)
|   |   |   |   |   |   |   WeekDay = Mon: Return_to_owner (3.0/1.0)
|   |   |   |   |   |   Month = October
|   |   |   |   |   |   |   DaysuponOutcome <= 730: Transfer (16.0/6.0)
|   |   |   |   |   |   |   DaysuponOutcome > 730: Return_to_owner (5.0/2.0)
|   |   |   |   |   |   Month = January: Transfer (19.0/9.0)
|   |   |   |   |   |   Month = July: Transfer (15.0/9.0)
|   |   |   |   |   |   Month = November: Return_to_owner (14.0/6.0)
|   |   |   |   |   |   Month = April: Transfer (10.0/4.0)
|   |   |   |   |   |   Month = March
|   |   |   |   |   |   |   IsPopularBreed = No: Return_to_owner (4.0/1.0)
|   |   |   |   |   |   |   IsPopularBreed = Yes: Euthanasia (2.0/1.0)
|   |   |   |   |   |   Month = May: Return_to_owner (11.0/3.0)
|   |   |   |   |   |   Month = December
|   |   |   |   |   |   |   DayPeriod = Afternoon
|   |   |   |   |   |   |   |   IsHoliday = No: Transfer (6.0/1.0)
|   |   |   |   |   |   |   |   IsHoliday = Yes: Return_to_owner (7.0/1.0)
|   |   |   |   |   |   |   DayPeriod = Morning
|   |   |   |   |   |   |   |   IsSingleColor = No: Return_to_owner (2.0)
|   |   |   |   |   |   |   |   IsSingleColor = Yes: Transfer (3.0/1.0)
|   |   |   |   |   |   |   DayPeriod = Evening: Transfer (1.0)
|   |   |   |   |   |   Month = June
|   |   |   |   |   |   |   DaysuponOutcome <= 330: Transfer (2.0)
|   |   |   |   |   |   |   DaysuponOutcome > 330: Return_to_owner (10.0/3.0)
|   |   |   |   |   |   Month = September
|   |   |   |   |   |   |   IsPopularBreed = No: Transfer (10.0/4.0)
|   |   |   |   |   |   |   IsPopularBreed = Yes: Return_to_owner (6.0)
|   |   |   |   |   |   Month = August
|   |   |   |   |   |   |   DayPeriod = Afternoon: Transfer (13.0/7.0)
|   |   |   |   |   |   |   DayPeriod = Morning: Return_to_owner (4.0/1.0)
|   |   |   |   |   |   |   DayPeriod = Evening: Return_to_owner (0.0)
|   |   |   |   |   BreedGroup = Group 4: Return_to_owner (0.0)
|   |   |   |   |   BreedGroup = Pit Bull
|   |   |   |   |   |   Sex = Male
|   |   |   |   |   |   |   DaysuponOutcome <= 330
|   |   |   |   |   |   |   |   Season = Winter
|   |   |   |   |   |   |   |   |   DaysuponOutcome <= 270: Return_to_owner (3.0)
|   |   |   |   |   |   |   |   |   DaysuponOutcome > 270: Transfer (5.0/1.0)
|   |   |   |   |   |   |   |   Season = Fall: Transfer (8.0/2.0)
|   |   |   |   |   |   |   |   Season = Summer: Return_to_owner (7.0/2.0)
|   |   |   |   |   |   |   |   Season = Spring: Transfer (3.0)
|   |   |   |   |   |   |   DaysuponOutcome > 330: Return_to_owner (172.0/86.0)
|   |   |   |   |   |   Sex = Female
|   |   |   |   |   |   |   WeekDay = Wed
|   |   |   |   |   |   |   |   IsSingleColor = No: Return_to_owner (11.0/4.0)
|   |   |   |   |   |   |   |   IsSingleColor = Yes: Euthanasia (4.0/2.0)
|   |   |   |   |   |   |   WeekDay = Sun
|   |   |   |   |   |   |   |   DaysuponOutcome <= 730: Transfer (8.0/3.0)
|   |   |   |   |   |   |   |   DaysuponOutcome > 730: Return_to_owner (2.0/1.0)
|   |   |   |   |   |   |   WeekDay = Sat
|   |   |   |   |   |   |   |   DayPeriod = Afternoon: Transfer (10.0/4.0)
|   |   |   |   |   |   |   |   DayPeriod = Morning
|   |   |   |   |   |   |   |   |   Season = Winter: Transfer (3.0/1.0)
|   |   |   |   |   |   |   |   |   Season = Fall: Return_to_owner (5.0/1.0)
|   |   |   |   |   |   |   |   |   Season = Summer: Transfer (1.0)
|   |   |   |   |   |   |   |   |   Season = Spring: Return_to_owner (0.0)
|   |   |   |   |   |   |   |   DayPeriod = Evening: Adoption (1.0)
|   |   |   |   |   |   |   WeekDay = Fri: Transfer (24.0/9.0)
|   |   |   |   |   |   |   WeekDay = Thu: Transfer (26.0/16.0)
|   |   |   |   |   |   |   WeekDay = Tue
|   |   |   |   |   |   |   |   DaysuponOutcome <= 365: Return_to_owner (6.0/3.0)
|   |   |   |   |   |   |   |   DaysuponOutcome > 365: Euthanasia (12.0/5.0)
|   |   |   |   |   |   |   WeekDay = Mon: Return_to_owner (23.0/12.0)
|   |   |   |   |   |   Sex = Unknown: Return_to_owner (0.0)
|   |   |   |   |   BreedGroup = Non-Sporting: Return_to_owner (73.0/37.0)
|   |   |   |   |   BreedGroup = Terrier
|   |   |   |   |   |   Season = Winter
|   |   |   |   |   |   |   IsPopularBreed = No: Return_to_owner (18.0/7.0)
|   |   |   |   |   |   |   IsPopularBreed = Yes: Transfer (3.0/1.0)
|   |   |   |   |   |   Season = Fall
|   |   |   |   |   |   |   IsSingleColor = No
|   |   |   |   |   |   |   |   DaysuponOutcome <= 1825
|   |   |   |   |   |   |   |   |   Month = February: Return_to_owner (0.0)
|   |   |   |   |   |   |   |   |   Month = October: Euthanasia (5.0/1.0)
|   |   |   |   |   |   |   |   |   Month = January: Return_to_owner (0.0)
|   |   |   |   |   |   |   |   |   Month = July: Return_to_owner (0.0)
|   |   |   |   |   |   |   |   |   Month = November
|   |   |   |   |   |   |   |   |   |   DaysuponOutcome <= 730: Return_to_owner (2.0)
|   |   |   |   |   |   |   |   |   |   DaysuponOutcome > 730: Euthanasia (3.0/1.0)
|   |   |   |   |   |   |   |   |   Month = April: Return_to_owner (0.0)
|   |   |   |   |   |   |   |   |   Month = March: Return_to_owner (0.0)
|   |   |   |   |   |   |   |   |   Month = May: Return_to_owner (0.0)
|   |   |   |   |   |   |   |   |   Month = December: Return_to_owner (2.0)
|   |   |   |   |   |   |   |   |   Month = June: Return_to_owner (0.0)
|   |   |   |   |   |   |   |   |   Month = September: Return_to_owner (0.0)
|   |   |   |   |   |   |   |   |   Month = August: Return_to_owner (0.0)
|   |   |   |   |   |   |   |   DaysuponOutcome > 1825: Transfer (4.0/1.0)
|   |   |   |   |   |   |   IsSingleColor = Yes
|   |   |   |   |   |   |   |   DaysuponOutcome <= 365: Transfer (4.0/1.0)
|   |   |   |   |   |   |   |   DaysuponOutcome > 365: Return_to_owner (6.0/1.0)
|   |   |   |   |   |   Season = Summer
|   |   |   |   |   |   |   IsSingleColor = No: Return_to_owner (15.0/5.0)
|   |   |   |   |   |   |   IsSingleColor = Yes: Transfer (7.0/2.0)
|   |   |   |   |   |   Season = Spring
|   |   |   |   |   |   |   IsSingleColor = No: Transfer (11.0/3.0)
|   |   |   |   |   |   |   IsSingleColor = Yes: Return_to_owner (4.0/1.0)
|   |   |   |   |   BreedGroup = Toy
|   |   |   |   |   |   IsPopularBreed = No: Transfer (284.0/101.0)
|   |   |   |   |   |   IsPopularBreed = Yes: Return_to_owner (52.0/26.0)
|   |   |   |   |   BreedGroup = Working
|   |   |   |   |   |   IsHoliday = No: Return_to_owner (117.0/43.0)
|   |   |   |   |   |   IsHoliday = Yes
|   |   |   |   |   |   |   DayPeriod = Afternoon: Return_to_owner (18.0/10.0)
|   |   |   |   |   |   |   DayPeriod = Morning: Transfer (4.0)
|   |   |   |   |   |   |   DayPeriod = Evening: Return_to_owner (0.0)
|   |   |   |   |   BreedGroup = Group 2: Return_to_owner (0.0)
|   |   |   |   |   BreedGroup = Unknown
|   |   |   |   |   |   WeekDay = Wed: Transfer (1.0)
|   |   |   |   |   |   WeekDay = Sun: Return_to_owner (1.0)
|   |   |   |   |   |   WeekDay = Sat: Euthanasia (4.0/2.0)
|   |   |   |   |   |   WeekDay = Fri: Adoption (1.0)
|   |   |   |   |   |   WeekDay = Thu: Transfer (3.0/1.0)
|   |   |   |   |   |   WeekDay = Tue: Transfer (3.0/1.0)
|   |   |   |   |   |   WeekDay = Mon: Return_to_owner (3.0/1.0)
|   |   |   |   |   BreedGroup = Hound: Transfer (84.0/41.0)
|   |   |   |   |   BreedGroup = Group 3: Return_to_owner (0.0)
|   |   |   |   |   BreedGroup = Sporting
|   |   |   |   |   |   Month = February
|   |   |   |   |   |   |   WeekDay = Wed: Transfer (1.0)
|   |   |   |   |   |   |   WeekDay = Sun: Return_to_owner (2.0/1.0)
|   |   |   |   |   |   |   WeekDay = Sat: Transfer (0.0)
|   |   |   |   |   |   |   WeekDay = Fri: Return_to_owner (2.0/1.0)
|   |   |   |   |   |   |   WeekDay = Thu: Adoption (2.0)
|   |   |   |   |   |   |   WeekDay = Tue: Return_to_owner (2.0)
|   |   |   |   |   |   |   WeekDay = Mon: Transfer (3.0)
|   |   |   |   |   |   Month = October
|   |   |   |   |   |   |   DaysuponOutcome <= 730: Transfer (10.0/1.0)
|   |   |   |   |   |   |   DaysuponOutcome > 730: Return_to_owner (7.0/2.0)
|   |   |   |   |   |   Month = January
|   |   |   |   |   |   |   DayPeriod = Afternoon: Transfer (9.0/5.0)
|   |   |   |   |   |   |   DayPeriod = Morning: Return_to_owner (4.0/1.0)
|   |   |   |   |   |   |   DayPeriod = Evening: Return_to_owner (1.0)
|   |   |   |   |   |   Month = July: Transfer (13.0/3.0)
|   |   |   |   |   |   Month = November: Transfer (26.0/15.0)
|   |   |   |   |   |   Month = April
|   |   |   |   |   |   |   DaysuponOutcome <= 1095: Return_to_owner (3.0/1.0)
|   |   |   |   |   |   |   DaysuponOutcome > 1095: Transfer (3.0)
|   |   |   |   |   |   Month = March
|   |   |   |   |   |   |   IsSingleColor = No: Return_to_owner (3.0)
|   |   |   |   |   |   |   IsSingleColor = Yes: Euthanasia (3.0/1.0)
|   |   |   |   |   |   Month = May
|   |   |   |   |   |   |   DayPeriod = Afternoon: Transfer (6.0/2.0)
|   |   |   |   |   |   |   DayPeriod = Morning
|   |   |   |   |   |   |   |   IsHoliday = No: Euthanasia (3.0/1.0)
|   |   |   |   |   |   |   |   IsHoliday = Yes: Return_to_owner (2.0/1.0)
|   |   |   |   |   |   |   DayPeriod = Evening: Return_to_owner (1.0)
|   |   |   |   |   |   Month = December
|   |   |   |   |   |   |   IsHoliday = No
|   |   |   |   |   |   |   |   IsSingleColor = No: Transfer (2.0)
|   |   |   |   |   |   |   |   IsSingleColor = Yes: Return_to_owner (3.0)
|   |   |   |   |   |   |   IsHoliday = Yes: Euthanasia (2.0/1.0)
|   |   |   |   |   |   Month = June: Return_to_owner (15.0/8.0)
|   |   |   |   |   |   Month = September
|   |   |   |   |   |   |   IsSingleColor = No: Transfer (7.0)
|   |   |   |   |   |   |   IsSingleColor = Yes: Return_to_owner (5.0/2.0)
|   |   |   |   |   |   Month = August: Return_to_owner (9.0/3.0)
|   |   |   |   |   BreedGroup = Group 1: Return_to_owner (0.0)
|   |   |   |   |   BreedGroup = Terrier&Toy: Transfer (2.0)
|   |   |   |   DaysuponOutcome > 3650: Return_to_owner (108.0/43.0)
|   |   |   AnimalType = Cat: Transfer (226.0/55.0)
|   HasName = No
|   |   DaysuponOutcome <= 365: Transfer (3326.0/450.0)
|   |   DaysuponOutcome > 365
|   |   |   DaysuponOutcome <= 2190
|   |   |   |   AnimalType = Dog
|   |   |   |   |   BreedGroup = Herding
|   |   |   |   |   |   Season = Winter: Euthanasia (3.0/1.0)
|   |   |   |   |   |   Season = Fall
|   |   |   |   |   |   |   Sex = Male: Euthanasia (4.0/1.0)
|   |   |   |   |   |   |   Sex = Female: Transfer (5.0/1.0)
|   |   |   |   |   |   |   Sex = Unknown: Transfer (0.0)
|   |   |   |   |   |   Season = Summer: Euthanasia (2.0)
|   |   |   |   |   |   Season = Spring: Transfer (9.0/2.0)
|   |   |   |   |   BreedGroup = Group 4: Euthanasia (0.0)
|   |   |   |   |   BreedGroup = Pit Bull: Euthanasia (47.0/15.0)
|   |   |   |   |   BreedGroup = Non-Sporting
|   |   |   |   |   |   Sex = Male: Euthanasia (8.0/1.0)
|   |   |   |   |   |   Sex = Female
|   |   |   |   |   |   |   WeekDay = Wed: Transfer (2.0)
|   |   |   |   |   |   |   WeekDay = Sun: Return_to_owner (0.0)
|   |   |   |   |   |   |   WeekDay = Sat: Return_to_owner (2.0)
|   |   |   |   |   |   |   WeekDay = Fri: Return_to_owner (0.0)
|   |   |   |   |   |   |   WeekDay = Thu: Return_to_owner (0.0)
|   |   |   |   |   |   |   WeekDay = Tue: Return_to_owner (0.0)
|   |   |   |   |   |   |   WeekDay = Mon: Euthanasia (1.0)
|   |   |   |   |   |   Sex = Unknown: Euthanasia (0.0)
|   |   |   |   |   BreedGroup = Terrier
|   |   |   |   |   |   DayPeriod = Afternoon: Transfer (12.0/3.0)
|   |   |   |   |   |   DayPeriod = Morning: Euthanasia (6.0)
|   |   |   |   |   |   DayPeriod = Evening: Transfer (0.0)
|   |   |   |   |   BreedGroup = Toy
|   |   |   |   |   |   Month = February: Euthanasia (6.0/3.0)
|   |   |   |   |   |   Month = October: Transfer (12.0/4.0)
|   |   |   |   |   |   Month = January
|   |   |   |   |   |   |   DaysuponOutcome <= 730: Euthanasia (3.0)
|   |   |   |   |   |   |   DaysuponOutcome > 730: Transfer (4.0/1.0)
|   |   |   |   |   |   Month = July
|   |   |   |   |   |   |   Sex = Male: Euthanasia (2.0)
|   |   |   |   |   |   |   Sex = Female: Transfer (4.0/1.0)
|   |   |   |   |   |   |   Sex = Unknown: Euthanasia (0.0)
|   |   |   |   |   |   Month = November: Transfer (3.0/1.0)
|   |   |   |   |   |   Month = April: Transfer (7.0/1.0)
|   |   |   |   |   |   Month = March: Euthanasia (9.0/1.0)
|   |   |   |   |   |   Month = May
|   |   |   |   |   |   |   Sex = Male: Transfer (3.0)
|   |   |   |   |   |   |   Sex = Female: Euthanasia (2.0)
|   |   |   |   |   |   |   Sex = Unknown: Transfer (0.0)
|   |   |   |   |   |   Month = December: Transfer (8.0/1.0)
|   |   |   |   |   |   Month = June
|   |   |   |   |   |   |   DaysuponOutcome <= 730: Euthanasia (3.0/1.0)
|   |   |   |   |   |   |   DaysuponOutcome > 730: Transfer (2.0)
|   |   |   |   |   |   Month = September: Euthanasia (2.0/1.0)
|   |   |   |   |   |   Month = August
|   |   |   |   |   |   |   DaysuponOutcome <= 1825: Euthanasia (3.0)
|   |   |   |   |   |   |   DaysuponOutcome > 1825: Return_to_owner (2.0/1.0)
|   |   |   |   |   BreedGroup = Working
|   |   |   |   |   |   DaysuponOutcome <= 1460: Transfer (6.0/1.0)
|   |   |   |   |   |   DaysuponOutcome > 1460: Euthanasia (2.0)
|   |   |   |   |   BreedGroup = Group 2: Euthanasia (0.0)
|   |   |   |   |   BreedGroup = Unknown: Euthanasia (0.0)
|   |   |   |   |   BreedGroup = Hound
|   |   |   |   |   |   Season = Winter: Return_to_owner (1.0)
|   |   |   |   |   |   Season = Fall: Return_to_owner (4.0/1.0)
|   |   |   |   |   |   Season = Summer: Transfer (6.0/2.0)
|   |   |   |   |   |   Season = Spring: Euthanasia (2.0)
|   |   |   |   |   BreedGroup = Group 3: Euthanasia (0.0)
|   |   |   |   |   BreedGroup = Sporting: Euthanasia (14.0/6.0)
|   |   |   |   |   BreedGroup = Group 1: Euthanasia (0.0)
|   |   |   |   |   BreedGroup = Terrier&Toy: Euthanasia (2.0/1.0)
|   |   |   |   AnimalType = Cat: Transfer (385.0/92.0)
|   |   |   DaysuponOutcome > 2190: Euthanasia (124.0/35.0)
Castrated = Unknown
|   HasName = Yes
|   |   DaysuponOutcome <= 730
|   |   |   DayPeriod = Afternoon: Transfer (24.0/2.0)
|   |   |   DayPeriod = Morning: Return_to_owner (3.0/1.0)
|   |   |   DayPeriod = Evening: Transfer (2.0)
|   |   DaysuponOutcome > 730
|   |   |   IsMix = Yes
|   |   |   |   Season = Winter: Euthanasia (0.0)
|   |   |   |   Season = Fall: Return_to_owner (2.0)
|   |   |   |   Season = Summer: Euthanasia (2.0)
|   |   |   |   Season = Spring: Euthanasia (3.0)
|   |   |   IsMix = No: Return_to_owner (2.0)
|   HasName = No
|   |   DaysuponOutcome <= 21: Transfer (611.0/38.0)
|   |   DaysuponOutcome > 21
|   |   |   DaysuponOutcome <= 1460: Transfer (426.0/73.0)
|   |   |   DaysuponOutcome > 1460: Euthanasia (19.0/6.0)

Number of Leaves  : 	1136

